<NeuralNetwork>
    <Inputs>
        <InputsNumber>12</InputsNumber>
        <Item Index="1">
            <Name>input_1</Name>
            <Units></Units>
            <Description></Description>
        </Item>
        <Item Index="2">
            <Name>input_2</Name>
            <Units></Units>
            <Description></Description>
        </Item>
        <Item Index="3">
            <Name>input_3</Name>
            <Units></Units>
            <Description></Description>
        </Item>
        <Item Index="4">
            <Name>input_4</Name>
            <Units></Units>
            <Description></Description>
        </Item>
        <Item Index="5">
            <Name>input_5</Name>
            <Units></Units>
            <Description></Description>
        </Item>
        <Item Index="6">
            <Name>input_6</Name>
            <Units></Units>
            <Description></Description>
        </Item>
        <Item Index="7">
            <Name>input_7</Name>
            <Units></Units>
            <Description></Description>
        </Item>
        <Item Index="8">
            <Name>input_8</Name>
            <Units></Units>
            <Description></Description>
        </Item>
        <Item Index="9">
            <Name>input_9</Name>
            <Units></Units>
            <Description></Description>
        </Item>
        <Item Index="10">
            <Name>input_10</Name>
            <Units></Units>
            <Description></Description>
        </Item>
        <Item Index="11">
            <Name>input_11</Name>
            <Units></Units>
            <Description></Description>
        </Item>
        <Item Index="12">
            <Name>input_12</Name>
            <Units></Units>
            <Description></Description>
        </Item>
    </Inputs>
    <MultilayerPerceptron>
        <Architecture>12 200 100 50 1</Architecture>
        <LayersActivationFunction>HyperbolicTangent HyperbolicTangent HyperbolicTangent Linear</LayersActivationFunction>
        <Parameters>0.438171 -0.243293 0.326991 -0.00659967 0.203476 0.237354 0.843829 -1.40302 0.866223 1.48334 0.145597 -0.739087 -0.813992 -0.250681 -1.03164 -2.01821 0.710971 -0.20595 -0.879847 0.266907 1.52791 -0.366516 0.0360366 0.339229 -0.331651 0.240271 0.503897 -0.557413 -1.24994 -0.449334 -0.871784 1.07355 -1.44259 -0.0628508 -0.55424 -0.127022 0.569022 -1.0018 -0.45011 -0.121234 0.0852565 0.341263 -0.497206 1.07825 0.899267 0.834547 0.227808 -0.790785 -1.69738 -1.29157 -1.57571 -0.387828 1.51667 0.607387 -0.991649 0.0582008 0.424776 1.06824 -0.0415275 -0.981768 0.314896 0.620871 -1.91773 -0.446066 -1.0687 1.44458 0.0239411 -0.694364 1.11358 0.167328 1.2067 -0.0148642 -0.0786048 -1.02188 -0.664148 0.189715 1.05765 0.736357 -0.272815 2.14337 -1.76849 -0.976792 -0.118019 0.722443 -1.29605 0.1131 0.0146675 -1.31314 0.524865 2.22155 1.16596 1.63123 0.399491 0.176948 0.146507 -0.0810743 -0.39668 0.885447 1.30483 -1.73147 -0.465257 1.31131 -0.0974552 -1.34548 -1.65084 -0.944777 -0.0476505 1.93828 -0.688272 -1.17905 1.21475 0.579875 0.938731 0.510539 -0.629695 1.64947 1.32119 -0.0612767 1.26897 -1.20765 -0.73261 -0.642358 -0.974775 0.136796 -1.35958 0.530158 -0.362593 1.61916 -2.40329 0.405289 0.236974 0.54414 -0.714307 -0.679692 0.415313 -1.52703 2.90458 1.81696 -0.121968 1.46901 -0.534738 0.783603 -0.766587 -0.417932 -0.23373 -0.400528 -2.00786 0.309659 1.00117 0.462723 0.852664 -0.74881 -0.1699 0.283709 -0.845985 -1.51213 1.60305 -0.486644 -1.36312 1.48054 0.883091 -1.22339 -0.42844 0.173624 0.263816 -1.13776 0.020337 1.36466 -0.440905 -1.41108 -0.63862 -0.348237 0.0838053 -0.782152 -0.153276 -0.251396 -0.913042 0.295594 0.595433 0.102325 0.0186375 -0.546069 -0.0466466 0.127192 0.357669 0.0617764 -1.73439 0.539955 -0.0739711 -0.327588 0.694876 0.322202 0.828485 -0.52236 -0.390241 0.592671 -0.336701 1.17432 -2.7026 0.21084 3.01901 0.0728797 -0.917643 0.93113 0.823681 -0.330558 -0.106497 0.802336 -0.784763 0.810237 0.371978 -0.190028 1.16317 1.30954 1.12015 0.889479 0.168295 -0.107764 -0.359052 0.474676 -0.0785124 0.00621947 -0.434795 0.555135 -0.318862 -0.687243 0.646586 -1.28385 0.184791 -1.19601 -1.78211 1.91133 0.93979 1.88939 -1.53625 -1.23426 1.30638 0.875894 0.640504 0.949266 0.102461 -1.00496 -1.45334 -1.02695 -1.28629 -0.526127 -1.58197 0.193832 0.706902 0.090201 0.144957 -1.31382 0.2041 -0.108909 1.34299 0.912943 -1.31557 0.227115 -2.10065 -0.101347 -0.249206 0.560024 0.340428 -0.00683907 1.68456 0.414909 -1.61137 -0.465571 1.04522 -1.76446 0.505109 0.0887272 -0.948483 0.743357 0.511193 -0.946767 0.0326248 0.518622 -2.22672 -0.357736 -0.514324 -1.10399 0.784459 -0.449582 1.55675 -1.33252 1.4404 1.02472 -0.127224 0.851161 0.265883 -1.61469 -0.1699 -0.119702 0.130211 -0.998115 0.515882 -0.78223 0.521036 1.81998 0.346584 1.41046 -0.692108 -0.283536 1.05362 -1.40617 1.59867 0.22972 0.644719 -0.0225739 -1.57266 0.772911 1.98882 0.484064 0.345374 0.0606301 0.0228536 1.52904 0.331503 -0.308035 0.377326 -0.00701674 0.320419 -0.0582312 -1.08649 -0.660219 0.037904 -1.39287 0.133437 -0.187598 0.819288 -0.235215 0.742953 -0.472697 -0.159565 -0.886813 0.765335 -0.192527 0.804654 -0.0556332 -0.501899 0.0860213 -1.81801 1.34932 -1.40752 -0.048523 -2.35248 0.179361 -0.717336 1.2643 -0.183154 0.672087 1.34042 0.506368 -0.572944 -2.25077 0.22023 1.41783 -1.75115 -1.82386 -0.711172 1.15088 -1.06613 -0.509308 -1.20642 0.37656 -1.49271 -1.2516 1.54039 0.372501 -0.179914 0.772614 -1.15386 1.47391 -0.186301 1.78546 -1.8844 0.0253894 1.83607 0.509481 1.07944 1.11181 -0.31132 0.958387 0.285246 0.473155 0.549061 1.3319 -0.177502 -0.105247 -0.698566 -1.26267 -0.601182 0.0600833 0.121816 0.397072 -0.754651 -0.652663 -1.32196 -0.167339 0.82196 0.647548 0.623278 0.0027842 1.77088 1.17138 0.531529 1.98048 0.0355707 -0.189278 -0.865582 -1.17999 0.185381 -0.884081 -0.275515 -0.296952 -0.614178 -0.085408 -0.0109235 0.351681 -0.100046 -0.192219 0.749966 -0.476054 -0.00390224 -1.1981 1.04746 -0.0743429 0.415951 -0.93073 -0.161626 -0.269983 0.796245 -0.199302 -0.245945 -0.265054 1.62324 -0.0416071 1.49998 -1.40999 -0.453283 -0.551132 0.402646 -1.71972 -2.0414 -1.53597 -0.88658 -0.160246 0.397873 0.408845 0.987096 -0.390372 -0.283354 0.124902 0.862172 -1.67969 -0.000884478 -0.696553 0.514811 1.4938 1.24475 -0.0850478 0.641829 0.736199 0.466479 -0.453364 0.0956138 0.0429332 0.898399 -0.668446 0.836058 -1.606 0.289955 -0.73868 -0.115521 -1.20207 -0.94665 0.187601 -0.525229 1.57111 1.27477 0.303907 0.76841 0.432611 -0.392212 -0.970455 -1.17461 0.450903 1.44984 -2.0078 -0.559549 -1.07829 -0.419175 0.853166 0.738295 -0.513452 -0.37064 -1.26792 -2.64844 -1.23687 1.07398 -0.209592 0.178526 -0.209971 -0.245422 -0.485339 1.51275 0.800105 -1.21848 -0.305185 0.874734 -0.659422 1.03245 -0.728313 0.831806 -0.675216 -0.25494 -0.406023 0.540662 -0.675301 -0.523273 1.0317 -0.486836 -0.909914 0.296537 0.318873 -1.41314 -0.0443624 -0.835414 -1.13429 0.469322 1.05675 0.882087 1.6222 0.408746 0.0973692 -1.19775 -0.473805 0.332462 -0.735658 0.000382362 -0.510812 0.760487 0.116804 0.529862 -0.673838 -0.561748 -0.105725 1.10859 -0.703276 -1.18085 -0.745352 0.0181452 -0.161495 -0.793103 0.0812584 -0.333051 -1.09929 0.990078 -0.291777 0.659494 0.331645 -1.71351 0.305071 -1.1347 -0.452798 -0.436208 -1.88571 0.972735 0.969263 0.178195 1.4426 -0.201966 2.03462 0.255376 1.83709 -0.954372 0.51775 -1.10951 -0.194917 1.56871 -0.480568 0.183772 1.6266 -1.54866 -0.492122 -0.431484 0.989343 -1.44418 -0.667488 0.502308 -0.891564 0.586399 0.561845 -0.384229 2.01787 -0.698262 0.0102762 -0.737739 0.0500451 -0.273278 -0.913253 -0.309279 -0.451074 0.136143 -0.902346 2.57283 -0.0268001 0.527505 1.02143 -1.15526 -0.835589 0.623835 0.130887 0.0931346 1.45945 0.972638 0.537818 -0.743795 1.37437 0.703486 -0.453418 -1.11544 -0.369296 0.126238 0.166908 -0.100308 -1.23919 0.660472 0.902661 -0.808748 -1.83864 -0.512153 2.09455 1.25152 -0.513982 1.58288 1.03491 0.296894 0.827708 0.21696 -0.450354 -0.46296 -1.3934 0.473951 0.848414 1.72419 -0.168637 -1.12264 0.680235 1.20518 -0.188864 0.66853 -0.00287216 -1.01365 0.234668 0.335525 0.684449 0.700735 -2.30933 0.777875 0.711535 -1.3011 -0.387781 0.606084 1.19536 -1.30673 -0.863631 -0.132917 -0.959588 -1.33865 0.483698 0.340603 -1.79444 0.973618 -1.23488 0.0356189 -1.14431 -0.961403 -1.90548 -0.991042 -0.102865 0.578688 2.16057 -0.677559 0.797688 -2.00034 -1.91026 -0.211434 1.8894 -0.359142 -2.2184 -0.745195 0.839414 0.522851 1.29381 0.619208 -0.502106 -0.629234 0.841628 1.37689 -0.458207 0.55015 -0.740371 -0.0845847 -0.166797 1.32381 -0.828571 -1.49813 -0.603516 -0.66687 -0.130946 0.154571 0.154938 -0.204461 1.423 -1.63215 -0.886671 0.672962 -0.268506 -0.403716 -0.252836 0.626833 -0.415957 0.752336 0.294211 -1.11056 -1.69818 -0.544738 -0.40465 0.549573 -0.585779 0.506234 0.850509 2.18772 -0.915013 0.82943 -0.241256 -1.28206 -1.47322 -1.66538 1.33905 0.752048 0.899481 0.645526 -0.078077 -0.583826 0.856564 -0.433912 -0.879762 -1.26767 1.35933 0.611435 -0.619749 -1.05044 -0.23679 -0.305642 -1.34749 -0.848561 1.36753 -0.936881 -0.637894 1.59747 -0.18154 -0.123427 -2.30336 0.445833 0.157685 -0.735495 -0.565706 0.215525 1.40076 -1.54255 0.403836 1.42275 -1.32086 -0.15945 -0.545257 0.794931 -0.558394 -1.08275 0.596982 0.348183 0.290993 0.965677 0.955839 -0.277066 -0.763579 0.569352 -0.226589 1.24431 0.819566 1.51916 -1.0007 1.30806 0.425621 -0.395727 -1.09968 0.488805 -0.105079 1.24951 -0.886729 1.16679 0.795772 0.287434 0.752616 0.29163 1.68758 -0.0843769 -0.101315 0.407004 -0.688408 0.455984 -0.94207 -1.43464 -0.0669706 -0.951461 -0.117861 0.216383 -0.80353 -0.110066 0.458756 1.32699 -1.67753 0.661751 0.662486 -0.901151 -0.376196 -0.6877 1.2199 1.19504 -0.170167 1.13332 -1.2031 0.311771 0.156584 -1.5716 -0.857302 1.91685 -0.32746 -0.885456 0.916983 -0.252725 0.441141 0.357645 -1.5706 0.129197 -0.682885 0.576095 -0.259899 1.15473 0.434848 0.0586906 -0.652819 -1.09429 -1.5007 0.555112 1.71537 -0.33958 -0.501649 -1.53447 0.303547 -0.927942 -1.74989 -1.15293 1.15937 -0.764997 -0.818076 -1.2445 0.0668989 -0.120481 0.246749 0.147569 -2.11955 0.127797 1.06142 -1.31471 -1.51559 -1.15911 -0.113146 -1.43265 -0.016768 0.647645 -0.0952244 0.597426 -0.15314 -0.0444041 -2.1146 1.03483 -0.504699 0.842318 -0.186462 0.696016 0.374052 1.98217 1.89934 -0.984949 0.588789 0.861509 0.147145 -0.0422751 -1.72962 -0.249352 -1.84275 0.219676 1.33115 0.62693 0.743233 0.367756 -0.018612 0.445676 0.143298 -1.39901 1.28903 -0.52741 -0.794414 -1.70404 -0.0119045 1.81649 -0.417601 -0.323359 1.88051 -0.774957 -0.885301 -2.65156 0.0339533 -0.719816 1.09227 -0.0471612 -0.132209 0.42949 0.633098 -0.770968 -1.6951 -0.470933 -0.220426 -1.33213 1.01668 -0.162189 1.74918 -0.0468672 0.584306 0.853638 -2.45807 -1.45082 -0.687405 -0.132424 0.115474 -1.53417 -1.00462 1.82805 -0.691589 -1.25623 -0.731466 0.296479 1.39692 -0.502955 -0.511637 -1.4686 -0.285169 -1.50174 -0.658377 0.414716 0.775844 -0.34985 -0.735432 -1.98497 -0.77453 1.50764 -0.810146 1.15191 -0.299938 0.915714 0.989438 0.112991 -1.27291 0.232031 -0.354508 1.08323 0.940584 -0.699956 0.0845048 -0.882397 0.40749 -0.950328 -1.53193 0.800689 0.23809 0.478276 0.710986 -0.283399 0.66325 0.257891 -1.56885 0.573205 -1.28193 -1.10257 0.233949 0.47453 1.63698 1.76744 0.416365 -1.62313 -1.76499 -1.74944 -2.56265 0.575951 -0.544657 -0.115995 0.130393 -0.430862 -0.289103 -0.658132 -0.395732 -0.0799807 0.762171 -0.554413 1.3709 0.50733 -0.633027 -0.250981 1.81091 0.0625195 -1.09318 -1.60943 0.198468 -0.38134 -1.02476 1.48499 -0.180586 0.395067 1.04361 -0.327754 1.31852 -0.445113 -1.5491 -0.920602 -0.723929 0.969181 -2.27407 1.52879 -1.1365 0.128278 -1.36975 -0.177682 -0.0266285 0.302513 -1.84729 -0.219749 -1.49882 -0.780963 0.283549 0.562674 1.85819 -0.240069 -0.0997973 0.172768 -0.719105 1.1066 1.0026 0.366663 0.180712 0.514359 -1.05897 -0.956901 -0.181326 -0.0906679 -2.12818 -0.195284 -0.539114 0.478371 -1.00748 -0.951317 0.3978 0.0501304 0.263351 1.0816 -0.345391 1.79557 2.00073 -1.40661 -1.06481 -0.846652 -0.126637 1.14793 -1.15393 -0.607822 0.731716 -1.17568 0.0592595 -0.322293 -0.504045 -0.968497 -0.509177 -0.892404 -0.270205 -0.505358 0.805578 2.10473 -0.52672 -0.787356 -1.89842 0.449501 -1.31699 1.34045 -0.731383 0.290464 1.45067 -0.648099 0.986826 0.00824006 -0.293635 0.846629 -1.88944 -1.22789 -1.26489 1.01159 -1.43822 -0.305584 0.656523 0.196189 1.69409 0.419607 -0.65993 -1.3668 -1.88197 -0.0589897 0.617917 0.949031 0.428735 0.227189 0.874437 -0.406776 0.133677 -0.269166 -0.772532 0.786624 1.8988 0.141673 -0.0212408 -0.70216 0.426734 1.68492 -0.146221 -0.171025 -0.914681 -0.283514 -0.122008 -0.0388646 0.00495774 1.18344 1.41445 -2.43083 0.801426 0.228146 1.36004 -1.95551 -0.0601194 0.277531 -0.698775 0.74514 0.801703 0.943488 2.34101 0.00602895 0.558637 0.25912 -0.315508 -0.924835 0.0334 -0.1836 0.426685 0.232491 -2.24001 0.27974 0.630484 -1.25855 -0.45601 -0.935289 -1.31961 -0.874247 -0.260783 -1.60473 -0.254047 -0.581537 -1.07676 -1.32253 0.113799 0.308747 0.970429 -0.520917 -0.865091 0.498975 1.79864 -1.20587 -1.28643 -0.154983 -2.08411 0.709286 0.361368 0.954812 -0.250097 0.153672 -0.852354 -0.341885 0.806063 -0.973214 1.54892 0.14914 -0.294704 -1.40779 0.732038 0.793376 -0.670165 1.6312 -0.734588 0.692182 0.445314 0.312161 0.533695 1.6635 -1.2524 -0.00524385 -0.0665587 -0.335435 0.278819 -0.494166 -1.66808 -0.605107 2.1483 1.80209 -0.442573 0.193547 -0.204037 -0.110387 0.420744 -0.0186068 -1.14305 -0.965314 -0.267264 0.280078 -0.425375 0.495302 -0.756117 -0.207215 0.520953 -1.2904 1.68361 1.27443 0.74938 -1.57472 0.798395 -0.729235 0.528263 -0.657118 -0.0384666 0.0252131 -0.524438 -0.749541 -0.286691 0.0791545 -0.731944 -0.779264 0.920315 1.33276 1.58227 -2.11248 -1.08025 0.639478 0.148628 -1.04399 -1.21826 1.2941 0.202145 -2.44147 1.39066 -2.30987 0.294437 0.570951 2.10992 -0.470905 1.46911 0.252722 0.549909 -2.49917 -1.50181 1.47821 -0.15538 -0.903994 -1.58061 -1.18208 -1.53599 1.00595 1.48678 -1.22833 1.14214 0.127545 0.537324 0.00568858 -0.133987 -0.569038 -1.56503 -0.169589 1.57256 0.17452 0.551524 0.845987 -0.488912 -0.114304 0.144232 0.56736 0.716854 0.583712 0.660883 -1.30111 0.788101 0.812271 -0.964535 0.66317 1.16569 0.221327 0.0743799 -0.295064 -2.17025 0.293806 -1.35139 -0.559905 0.203669 1.29031 -1.23579 -0.520092 -0.86449 1.17089 -1.25868 -0.43849 -0.206868 -2.8021 0.0926205 0.379581 -0.910588 0.201784 0.192958 -1.3647 -0.639262 -0.967332 -0.354955 -0.299587 1.94135 -1.95853 0.967182 -0.154534 1.15414 1.43132 -1.37896 -0.430962 -0.373927 -0.72191 0.597622 0.125554 -1.02611 -0.445787 -0.823945 -0.206302 -0.571356 0.604217 -0.592989 -0.55874 0.496722 -0.574213 0.120427 0.554885 0.330185 0.281913 -0.693273 -0.485772 0.545193 1.93214 -1.27547 1.85401 -1.27844 0.437986 1.01287 -0.309807 -1.2498 -0.347497 0.274643 -0.946508 -1.1206 0.540358 0.468409 -0.239553 0.653266 0.0403118 1.487 0.541768 -0.823578 1.1514 -0.731099 1.24668 0.248304 -1.24408 0.0907416 -0.156871 -0.716622 -0.729184 -1.27214 0.113282 -1.21696 -0.843536 -0.236969 1.15322 -1.74703 1.20809 0.0249197 0.00273859 -0.55844 1.29029 0.874387 0.218839 -0.887126 0.333024 -0.102407 -1.13597 -0.22584 0.571331 -0.706207 -0.113253 0.931064 0.085564 0.538057 -0.265847 -0.205245 0.294899 1.32431 -0.526194 1.17497 0.518736 2.53092 0.791515 0.732076 0.24811 -0.674272 0.72157 -0.41606 -1.13419 0.101773 0.166243 -1.01425 -0.381898 0.816133 1.01865 -0.499159 1.20945 2.17853 -0.287228 -0.777364 1.18219 0.984844 1.38716 -0.643766 -0.579518 -0.195754 -0.0869754 -0.359038 -0.900802 -0.40771 1.42185 -0.145167 -0.0344361 0.132351 0.294649 -1.44955 -0.257885 0.219064 -0.84931 -0.0669913 0.494187 -0.76168 0.653637 0.675863 -1.18573 -0.959779 0.0695129 0.383332 -0.469528 -0.736948 -0.00764965 -0.646236 0.365811 -0.642552 -0.954033 -1.15588 -0.226526 -0.812374 -1.99739 0.283379 0.0659208 0.129586 0.829971 0.228897 -0.392535 0.495243 0.00321687 -1.74421 -0.576904 -0.421198 -2.18503 0.651433 -0.574514 -1.12969 -0.177446 -1.89628 -1.17927 -0.015775 0.507697 -1.37118 0.138698 0.42768 -0.256008 -0.468715 0.851283 -1.96321 -1.92788 0.613909 0.289438 1.41439 -1.94549 -1.18227 -0.409091 1.08416 0.704629 -0.0562528 1.17961 1.75039 -1.4233 1.27384 -0.612968 1.02007 1.58748 1.44508 -0.195957 1.32511 -0.0519706 0.927102 -0.13526 0.825314 -0.737568 0.0695549 -0.094681 -1.31364 -0.414129 0.744916 1.31343 -0.133724 -0.000128321 -1.03725 1.59911 0.160791 -1.15017 0.554763 -0.0142407 -0.724782 -2.43081 -0.149699 0.161944 0.100885 -0.100066 -0.247652 -1.2122 0.109281 -2.53062 0.437331 -0.400015 0.247511 0.257101 -1.11944 0.202575 -0.0316627 -0.086121 -0.979544 -0.513318 -0.925471 -0.38753 -2.12142 0.482196 -0.495995 1.58769 0.17171 -0.735984 0.102129 -1.43364 0.902346 -0.432552 0.387585 -0.662816 -1.39663 1.03978 -0.535208 -0.422117 -0.309811 -0.0969347 -1.26853 0.887803 0.46435 -0.346715 -0.0121657 -0.532456 -1.17511 -0.765248 1.0523 -1.26782 -0.827237 0.915245 -0.071896 1.55799 0.0111483 2.09791 1.22447 0.073686 0.601759 0.189848 0.0269116 0.625987 0.947176 0.453162 -1.18208 0.831766 1.46213 -0.760795 -0.594754 -1.53912 0.416226 -0.777889 -0.544706 0.0874802 -0.833415 0.0648891 0.484836 -0.0622337 -0.50684 -0.0525706 1.60532 -1.22376 0.292209 0.552481 -1.67393 0.721673 0.554652 -1.3279 -0.149139 1.57183 -0.958402 0.984746 0.626307 -0.427998 1.17048 -0.147816 1.52801 0.158016 0.843064 -0.413244 1.73417 -0.0356773 2.91649 1.45327 0.9739 -1.00795 0.947228 -1.31405 -1.63618 -0.988447 -1.10892 0.251011 1.30406 -0.0645158 1.28249 -0.547359 -0.567323 0.0482518 0.817773 1.71894 -1.32391 1.8356 -0.919382 0.396453 -1.16803 0.217933 -0.512258 0.667449 0.441579 -0.715016 -1.98452 0.160069 1.27812 0.293407 -0.663023 1.17497 0.193069 -0.925332 -0.367897 -0.490587 1.96954 1.08358 0.0161125 -0.480092 0.222865 0.441021 -0.439217 0.280694 -1.53013 -0.417164 -0.757604 -0.0267647 0.34847 0.844658 0.451144 0.828634 -1.29065 -0.00536931 0.416133 -0.541782 0.0461952 0.720691 0.395296 -0.988958 -2.14114 1.30478 -0.365933 1.37803 1.15293 -0.269146 -0.548096 2.09654 -0.713043 0.266249 0.112285 0.084378 -0.508274 -0.772456 0.118958 1.44909 0.73538 -0.054995 -2.07815 -0.00495814 1.12594 0.169507 1.52926 1.23472 -1.26822 -0.0481538 -0.295957 -0.00668292 2.0686 -1.03453 -0.769646 0.58882 0.685775 0.640093 0.62531 0.505264 0.971482 -0.488524 -1.20156 -0.632363 -0.299515 0.83101 1.46803 0.932577 -0.706469 1.08704 0.69031 -1.80862 -0.107139 -0.86945 -0.519567 -0.325874 0.792116 -2.3575 -0.678406 0.402127 1.45015 0.797118 -0.00534639 -0.322764 0.351584 -1.50158 -1.45226 -0.704851 -1.66423 -0.568857 0.247933 -1.57458 0.729813 -0.856054 2.66492 0.226797 -0.338104 2.19577 1.51917 -0.588594 1.80771 0.304227 -1.1332 -0.496 1.97531 0.324142 1.94724 0.333736 0.61942 -0.321032 0.505446 0.627798 -0.0848495 -0.0912394 0.30433 1.18757 1.94419 -0.358436 -0.584652 -1.31591 0.736506 -1.71373 -0.326432 0.542047 0.707116 0.369412 0.105346 -1.34956 0.875941 -0.408879 -0.286224 -1.20638 0.260962 -0.417642 -0.888472 1.33467 -0.123758 1.12665 1.41684 1.68173 0.000912495 -0.226741 0.416743 -1.83383 1.41913 0.488712 -0.259038 1.04911 0.840638 -1.43015 -1.11486 -0.732338 1.43902 0.438799 0.157457 -0.912663 0.301576 -0.336124 -0.0461898 0.4741 0.229615 0.67187 1.12166 -0.442419 -0.187435 0.183389 -0.123513 -1.19417 2.39741 2.72576 1.24207 -0.454499 -2.67687 1.13052 0.518742 -0.883982 1.38675 0.512834 1.4709 0.321577 -1.06082 0.613118 -1.71067 0.862938 -1.49722 0.713335 2.32188 -0.0225622 0.970881 -0.722547 -0.0674309 0.1558 -0.858052 -1.60078 0.659919 0.125711 -0.554574 0.0211729 -0.909706 0.344254 -0.878498 -0.635905 0.0108022 -0.608108 1.28229 -0.490825 -0.617722 2.35826 -0.0254321 -0.236903 0.909512 0.0961612 1.53655 0.520038 1.70093 1.01901 -0.532446 -1.36178 -0.217962 0.696746 -0.012766 0.196662 0.846237 -0.730298 0.409542 0.909535 -1.00244 -0.367945 -0.769258 -2.0939 0.731291 -0.636754 -0.95085 1.40595 1.04902 -0.152796 -1.30399 0.436098 -1.2273 -1.32411 0.26522 0.516218 3.19339 -0.558385 -1.32878 -0.527494 1.59246 0.0775939 -1.20497 0.727971 -1.06475 0.613178 -1.03349 0.780746 -0.0587926 0.379001 -0.374278 -1.63842 -1.59046 0.646068 -0.370215 -1.04953 -0.653469 -1.08493 1.16067 0.738539 -1.80008 -0.239209 0.317768 -0.246172 -0.241047 -1.54335 -0.215993 0.490265 0.228278 -0.0700743 -2.75076 -0.416724 -1.13525 0.0894565 -0.283967 -0.79677 0.724293 -0.540454 0.482527 -0.264465 -0.77611 -0.724725 0.385597 1.04029 0.974766 -0.274061 1.14515 -0.447326 -0.590896 -0.718057 -0.158843 -0.551162 1.01124 1.24687 -1.08743 -0.244233 0.530158 0.474743 0.337542 0.994658 -1.17727 -1.29221 -1.39118 -0.369074 -0.431599 1.32195 0.796294 1.43788 0.407246 -1.16388 -0.322036 -0.196128 -0.292147 -0.496337 -0.892461 1.43524 -0.91705 -0.758542 0.406561 -1.34026 0.433206 -0.143849 0.448005 0.0240977 0.46675 -0.0704628 0.001277 -0.415622 0.854388 -0.371412 -0.32613 -1.97114 -0.333843 0.742942 0.214956 0.657691 0.547895 0.45353 -2.05899 -2.23384 1.01224 1.63815 -1.65497 -1.86423 -0.299231 0.686976 -0.646405 -0.17904 -1.68804 -0.171431 0.230383 1.7686 -0.764374 0.582013 0.503988 -1.32116 -1.05349 1.87975 0.0165555 0.666423 0.210915 1.6801 0.130513 0.909878 0.94612 0.0314238 0.52568 0.193995 -0.0913013 -1.47062 -0.612566 -0.448746 1.65221 1.08161 -0.935336 -0.179117 -0.463016 -0.228793 -0.912474 1.2032 -0.0890106 -0.541656 1.50175 0.717025 -1.27312 -1.31649 -1.57638 -1.38232 -0.985704 -1.07032 -1.05802 -0.817276 -0.183819 -1.18888 -0.68733 -1.17263 1.75452 1.19242 -0.848251 -0.00328991 0.184022 -0.615304 0.0205384 0.487114 -2.09034 -0.50847 -0.0024631 -1.31897 1.26037 -2.07446 1.1707 -1.3759 0.675908 -1.01832 -1.72476 1.22187 -2.12976 1.09084 0.267684 -0.860328 -1.49806 -0.255804 -0.0470818 -0.902051 -0.339904 -0.143209 0.780158 -0.253827 0.449435 -1.53029 0.721395 0.729639 1.34766 1.17521 0.0745488 1.44387 -2.24472 1.71187 -2.267 -1.39855 0.842401 0.488783 -0.335264 0.749161 -0.313933 0.290273 0.811402 -0.662668 -1.19683 -0.754034 0.181333 0.675923 1.86593 2.04886 0.365848 0.189381 -2.32358 -0.330863 1.09464 0.0894158 -0.521609 -1.25426 1.67213 1.74351 -1.3306 0.860939 -1.36372 1.18032 -0.762359 0.271443 1.47899 0.233051 -0.427869 0.409187 -1.35167 -1.8138 -2.03705 -0.649758 0.609599 -1.44605 0.144067 0.62413 -0.407491 -1.12974 -0.0840461 0.436915 -0.795835 -1.67571 0.867442 0.0296418 0.366749 -0.56279 -0.405334 -1.32104 0.580441 -0.939426 0.500568 0.728967 0.728325 0.377029 0.88844 -1.16513 -2.28371 -1.09261 -2.90347 -1.29507 0.206196 1.59161 -0.909121 0.310375 -0.950356 -1.30337 0.00688449 -0.0381203 -0.626307 0.976894 -0.809131 -0.108768 -0.781436 1.14696 -0.255039 0.276429 -0.155946 -0.746226 -1.83802 -1.88976 1.4846 0.90753 -1.68324 1.34263 0.0198122 -1.74734 -1.34829 -0.58718 0.310137 -1.87693 0.148677 0.464938 0.378159 1.06233 -0.0518985 1.10011 0.961619 0.326744 0.322618 -0.482131 1.78521 0.821951 0.569774 -0.992574 -0.609651 -0.503175 1.13707 0.640704 -1.33192 1.1827 1.45578 0.976918 0.405226 -1.8434 -0.570516 -0.506675 0.0682858 0.411093 0.195905 0.317633 0.28064 0.532291 0.615023 0.70653 1.7481 1.2987 -0.682292 0.212931 -0.374509 1.65697 0.723894 -1.89636 0.318457 -0.194225 0.318412 -0.949313 -1.52728 -0.0172157 -0.721115 0.122734 -0.638994 -1.08287 -1.3426 -1.34238 -1.45126 1.45243 0.988901 1.76444 0.0960255 -0.747736 0.343145 -0.586407 0.975086 -0.0887677 -0.0164319 -1.41246 -0.960192 0.891946 0.10801 0.863116 0.160363 1.62054 0.704823 0.442021 -0.660488 -1.62603 -0.319671 0.400981 1.10545 -0.778568 0.442818 -1.5981 -0.6118 2.30756 -0.403842 0.203385 2.08319 -0.3137 -0.767298 -0.257199 0.156807 0.267802 -0.843138 1.70086 -0.803756 0.569738 -0.64535 -0.98575 -1.71425 -1.18095 -0.139663 1.27913 -1.12699 0.534209 -0.0279923 -0.550553 0.334808 -0.157619 -1.07131 0.00938553 -1.46304 1.57363 -0.0848511 -0.270276 -0.466946 0.3141 -1.61844 -0.772964 1.17134 -0.0323381 0.731975 0.282618 -0.454569 -0.192985 -0.7659 0.679252 1.22322 0.310688 -1.09014 0.662253 -0.824956 0.0279253 -0.0846277 -0.808529 -0.094882 0.90989 1.62318 0.862444 0.690028 -0.0635864 0.81583 0.531806 -0.494316 0.834285 1.58421 -0.946193 -0.971616 0.218871 -0.675031 -0.150663 -0.434703 -1.60954 -1.08866 0.293236 -0.957471 -0.369872 2.3282 -1.39659 2.8438 -0.0792303 -0.0357802 1.17747 0.853056 -0.903877 1.94086 -1.09997 0.804648 -0.402177 -0.130164 -0.104273 -0.935208 -0.978821 -0.556601 -0.244208 -0.063819 -0.488579 -0.258573 0.951884 0.761636 0.430805 -1.07914 -0.0906546 0.275305 -0.351708 -0.0319 1.56012 0.0625504 -0.807235 -0.387998 0.431603 -1.69265 -0.280044 0.713301 1.61926 -0.420285 0.288302 -1.74758 -0.29445 -0.794454 -0.979618 1.72689 0.546388 -2.4658 -0.355877 -0.963013 -0.312004 -1.80885 1.19388 0.413614 0.588326 -1.57673 -0.471836 -0.667158 0.911868 1.50807 -0.830992 0.195316 0.0523814 -0.237973 0.588631 2.01193 0.495018 0.57555 -0.100948 0.887479 -0.542411 0.0260084 0.765967 0.363216 1.37913 -0.773859 0.552988 -1.81702 1.49277 0.877696 -0.712295 0.211808 -0.214304 0.348863 -0.965562 -0.309955 -1.78337 -1.61145 -1.10845 -0.74295 1.82725 -0.0432961 0.222562 -0.274172 3.51524 0.998736 0.272019 1.70979 -0.230097 0.505072 1.08941 0.1277 -0.10902 2.4257 -1.1061 1.31256 1.06534 0.229178 0.622017 1.73629 -0.901109 -1.32175 2.45111 -1.54524 -0.684005 0.286586 -0.836707 1.81897 1.02887 -0.871031 -0.748973 1.46006 0.692461 -0.830159 0.417996 -0.221943 0.472892 -0.373563 -0.313346 -0.0423754 -0.78924 -0.40659 -0.230648 0.128227 0.972598 1.52376 0.723934 1.01482 -1.18759 -0.842471 -0.46347 -0.489635 0.607947 0.802332 1.27863 -0.563441 -0.292426 -1.11066 0.518509 -0.719411 1.38541 0.557182 0.0286261 1.84025 0.996308 -0.220858 -0.609838 -0.44795 1.52599 -0.473704 -1.43622 0.492525 1.34327 -1.00037 -0.705748 -0.551477 0.0108414 0.800388 -0.73033 -0.934792 0.080031 -1.75084 -1.29447 -1.33612 -2.42383 -0.105012 0.775012 0.049676 0.00392519 1.14728 -0.622043 0.668673 -1.43907 1.34475 0.795544 0.762137 -0.83988 0.295897 0.90359 -0.404816 3.34459 1.34428 -0.213883 0.201742 -0.447662 -0.434014 -0.736709 -0.401023 0.446127 -0.411809 2.08434 -0.917735 -0.439297 0.591497 -0.49102 0.522107 0.818838 -0.364193 -0.664764 -1.45468 1.53458 -1.89539 0.29644 0.192249 -0.862365 -1.37601 -1.44938 1.20339 -0.7505 -0.0438696 -0.127332 -0.259272 0.541308 -1.6705 0.785464 0.709001 -1.52823 0.363623 -1.82376 0.484132 -0.17718 -1.11652 0.571012 -0.628889 1.08092 1.28819 -1.09241 -0.0896812 0.774524 -0.749846 -0.0253063 0.405404 -0.0929682 0.542157 -0.458552 0.19133 3.2261 1.16967 -0.372671 0.808649 0.545211 -0.752363 -0.787673 -1.24586 -1.24963 1.14298 -0.605242 0.870125 -0.212003 0.396636 0.330626 -0.104993 -3.08621 0.960139 -0.454525 -0.0834242 -0.546044 0.0467272 0.197187 0.194689 -0.785972 -0.12758 -0.757739 -0.962118 0.15557 0.716649 0.119809 -0.796778 0.410824 0.213757 -0.288439 -0.397557 -0.203136 -0.783761 -0.63463 1.00535 -0.102427 -0.326341 -0.430928 1.13095 0.136452 1.04352 0.0640546 0.289172 0.21873 0.778654 0.756096 1.43315 -0.550204 0.62666 1.27618 -0.721551 -0.52709 -1.8391 0.42343 -0.910651 -0.774371 1.58727 -1.10996 -0.219565 0.347699 -0.106415 -0.927681 -2.19882 -1.48143 -0.262795 0.332841 0.200681 -0.908282 -0.551912 0.655348 0.534522 -0.479664 -1.43607 0.396287 -1.93198 0.111667 0.930801 1.12534 -0.614026 0.961152 0.342332 0.512099 -0.281306 -0.249837 0.107068 1.23926 -0.896142 0.620776 -0.515386 -2.10121 -1.25476 0.918187 -0.337312 1.43613 0.374209 -0.848997 -0.547464 -0.771037 0.324694 0.373385 0.688589 -0.675405 -0.979742 -0.967476 -1.25881 0.124851 0.386472 -0.897024 0.88393 -0.59481 0.222435 1.20624 0.187506 -0.0803428 -1.66908 0.22688 -0.396705 0.87948 1.06656 0.147512 -0.842154 0.318208 0.751226 0.963569 -1.38078 -0.667785 -0.470069 -0.659062 0.306101 -0.0122057 0.383807 -0.101798 0.564602 1.4183 0.425921 2.13046 0.843731 -0.380573 -1.15572 -0.14382 -0.0171537 0.620834 0.292572 -0.944027 -1.32885 0.639292 0.944349 -0.210649 0.597912 0.00789262 -0.961613 -2.86482 -0.888134 0.125815 0.0912922 0.175751 -0.471649 2.87258 0.746455 -1.1225 -0.959436 0.905545 1.29001 0.572282 -0.445515 3.61316 1.41402 1.044 -1.79847 -0.548604 0.234042 -0.0264546 -0.429657 2.19664 -1.03225 0.713526 0.784109 0.122737 -0.635025 -0.374933 1.24726 -0.933884 -0.016725 -1.11245 -0.801471 1.32187 0.699715 -1.34164 0.395927 2.87558 -1.62848 -0.306166 -0.366403 -0.645577 0.278947 0.514848 -0.181254 0.82857 1.59528 0.0816295 -0.18734 -0.103789 -0.615188 0.398743 -0.609331 -0.351915 -1.15904 -0.329554 0.809956 -0.635958 -0.0897487 1.83022 -0.21884 -1.79706 -0.0264988 1.00631 -0.531132 -0.193816 -0.405111 -0.879578 0.555838 -1.08706 1.92946 0.362775 0.963017 0.254263 0.00857452 0.721969 -0.438343 2.07963 0.390935 0.883542 -0.676359 -1.44747 -0.311435 0.410677 -0.66546 -0.139274 -0.390086 -0.944281 -0.362184 0.411326 -0.805151 2.10392 1.95486 1.67094 -0.0959326 -0.578237 0.79016 -2.01946 0.0641765 -0.944731 0.258114 -0.269867 0.146861 0.460227 0.449949 -0.729033 0.40442 -0.938851 2.24029 1.09406 -1.5472 -0.857744 -0.326915 0.805787 -0.223104 1.19161 0.830493 1.06923 -1.55183 0.0231317 -0.771322 -1.07235 -1.58765 1.1073 1.13903 -1.10061 -0.443546 -0.370203 0.414325 0.206995 -0.187939 0.751706 0.767966 0.161458 0.957256 0.945096 -1.06735 -1.617 1.04746 -1.40992 0.0697861 -0.113038 0.0352462 -2.07789 0.252692 -0.954074 0.642985 1.88998 0.202296 0.693474 0.503006 0.489646 0.957743 0.0637523 0.361 -1.38882 -1.50041 0.164667 -1.12264 -0.531466 -0.198579 -0.0500685 -1.58469 -1.48113 -0.153893 -0.239705 -0.31243 2.09969 0.539576 1.58495 0.477163 -1.62054 -0.0222772 -1.774 0.304002 1.05204 -0.812746 -2.21622 0.46952 0.0824481 -0.237799 1.29311 0.79199 0.170268 0.365996 -0.223715 -0.222349 0.106013 0.216114 0.295122 -1.48975 -0.862147 0.108995 0.860025 -2.38181 -1.0147 1.03383 -1.95632 0.446264 -0.0264185 0.0809701 -0.59423 -1.23449 0.451504 -0.863379 0.683944 -0.266557 0.905887 -0.440175 -0.913825 0.0508261 -1.16613 -0.16328 0.331471 -0.773328 1.00728 1.40589 -2.53166 -1.35646 -2.17772 1.20421 0.487261 -0.45776 0.437442 1.65668 1.0763 2.38548 -0.473291 -0.728917 0.946502 0.41245 0.0736816 0.384204 -0.0443529 -1.93673 0.979399 1.04266 0.981919 -0.45185 1.12087 -0.181631 0.881525 -0.442768 -1.1416 -1.52285 0.973813 1.34911 -0.37776 1.05314 -0.372879 0.252637 -0.852393 0.777485 0.556896 1.59746 -0.959294 1.37882 -0.556636 0.521247 -0.181258 -0.245678 0.711713 0.50939 -0.456254 1.05251 -0.158027 -0.146891 -1.55426 0.817333 0.682556 -0.925069 -1.56022 0.197405 -1.41193 -0.978993 0.747029 -0.999333 -1.91787 -1.27192 -0.668631 0.0309644 -0.595093 -1.3089 -0.368093 -0.270418 0.877997 1.89385 0.514079 0.375574 -1.03775 -1.0547 0.894652 0.273166 0.0243118 -0.197995 -0.755185 -0.28781 -0.244927 -0.484038 0.499722 -0.649589 -1.47348 -0.66087 0.827403 0.473195 1.37923 -1.34134 0.986287 0.863023 0.754118 0.183605 0.232541 -0.56057 -0.884445 -0.469818 -0.679224 -0.00361603 -0.105168 0.639696 -0.344497 -1.53899 -0.993852 0.0309326 0.920465 0.348292 -1.23317 -1.21327 -0.60662 -1.09637 -0.929617 -0.793258 -0.941601 -0.07518 0.107215 -0.769409 -0.257874 0.299443 -1.57097 2.09133 1.53344 -0.83796 -0.436881 -0.457511 2.08643 -0.415052 -1.17623 -0.155851 -0.609351 0.329761 -0.0296928 -0.0882805 -2.04266 0.594403 -0.567308 0.107914 -0.613211 1.65436 -0.652016 -0.114216 1.28078 0.605765 -0.938084 1.01613 0.420407 0.142096 -0.324799 1.05484 -0.403495 -1.0648 -0.109437 0.2581 1.25853 -0.391931 -0.137099 -0.144641 0.853767 0.467803 0.367895 0.906432 1.4423 1.01483 0.0491571 -0.118394 0.097676 1.01739 -0.415385 -1.25694 2.63896 0.131598 -0.552804 0.276308 0.446597 -1.34953 -1.6182 1.33829 -0.159777 -0.420279 -0.159569 1.75144 -0.287944 -0.363259 0.7271 -1.62535 0.823395 1.37697 -0.464778 -0.249675 -1.17238 0.40604 -0.942316 1.13071 -0.30744 0.108992 0.00348887 2.21719 -0.322106 1.46771 -1.78347 -1.03072 1.23166 -0.00933587 0.351359 0.229292 -1.56344 1.95569 -0.134855 0.537733 -1.18265 1.1738 0.725081 0.340987 1.65412 0.177397 -0.149833 0.457944 0.0901082 -0.744314 -1.57012 -0.557489 -0.659492 0.730842 1.44858 -0.337484 1.73401 -0.622179 0.242521 0.792854 -0.0509565 -0.458054 0.760404 -0.699779 -0.5841 0.126051 -0.210115 0.396748 0.309005 -1.42255 0.869438 0.46973 0.28716 0.299467 0.55083 0.673027 0.856197 1.21564 -0.562069 0.411921 -0.352621 1.64687 0.194762 -0.406471 -0.848439 -0.398535 -1.12157 -0.650912 -1.60764 0.494333 1.00085 1.72177 0.461868 -0.220809 -0.638078 -0.0372496 -0.122583 0.495978 -0.197851 1.05592 -1.12823 -0.365195 -1.53576 -0.118754 1.66138 1.25183 0.683494 -0.216805 -1.10017 0.717987 1.11329 -1.37476 -1.234 -0.904423 1.04147 0.69172 -0.0124654 0.15197 0.227352 -0.436709 -1.08141 0.350503 0.316916 -2.18108 0.327932 1.65783 0.847666 -1.38483 -0.123234 0.0370598 -0.739444 0.408842 -0.591605 -0.123661 1.22081 0.712187 0.543136 0.807184 -1.29703 1.39012 -0.975532 1.73701 -0.436872 0.423309 0.0108622 -0.868343 0.179609 -1.30571 -0.262018 -0.557949 0.0718754 -0.403461 0.521706 0.277912 -0.648397 -1.66018 -0.728788 0.390677 1.04611 -0.541267 -1.88119 -1.81431 0.495913 -2.09099 -0.0577365 1.16091 0.490615 0.551109 2.15075 -0.559611 0.375051 -2.72912 1.36822 0.920239 -1.03314 -1.17805 0.222173 -2.44851 0.552985 0.540726 0.152896 0.640202 -0.16897 -0.825841 -1.55939 0.101917 0.133746 -0.433498 -0.514037 -1.15233 0.88775 -2.08684 0.297881 -0.424764 -0.238351 1.6206 -0.371587 -0.526458 0.648314 -1.48457 0.0617495 -0.920217 1.07625 -0.368661 -0.0750802 0.479017 0.620602 1.88233 -1.87718 -0.303416 -0.245747 2.01338 -0.562495 -0.733806 0.443843 0.83151 -0.1524 0.198994 -1.12544 -0.428796 1.05283 -0.725312 2.16536 0.956556 0.762245 0.505437 0.814726 0.435818 -0.542074 -1.39753 -0.0176126 1.22772 0.566884 -0.460229 -0.915834 -0.99181 0.743438 0.323074 -0.216288 -1.89715 0.126961 0.341564 0.0990181 0.0789835 0.691892 -0.509722 -0.717412 1.79146 0.876969 -1.20389 -1.59797 -1.29188 1.6122 -0.311456 0.0491536 0.124743 0.354047 -0.632557 -0.0598995 -1.03128 -1.02717 -1.64396 -0.638047 -1.72971 -1.50476 0.427833 -1.69413 -0.409707 0.349228 0.460013 -0.475151 -0.954448 0.446166 0.612077 -1.06853 0.220328 -0.772032 -0.390547 -0.0559576 1.02979 -1.20271 1.20619 -0.815814 -0.630096 -0.379356 -0.222213 0.980586 1.32735 0.448542 -0.112207 0.319604 2.08352 -0.387678 -0.112941 1.01062 0.622772 -2.62206 -1.03293 0.28353 -0.891401 -0.425665 -0.347336 -1.83553 0.191977 0.418384 0.539414 0.385741 -1.08179 0.873967 0.220073 0.561669 0.308151 -1.25651 -0.542162 0.736449 0.596115 -0.0308371 -0.163222 -0.957877 0.818287 -0.0665701 -1.88943 0.644741 -0.347867 -0.650892 -0.368128 -1.71437 -0.104162 -0.0558373 1.87861 0.0221702 0.424473 -0.343638 0.644635 0.523704 -0.70314 1.09814 0.678399 -0.90286 1.50371 -0.0514227 0.556285 0.298494 0.952358 -0.388647 0.0519194 -0.358654 -1.71681 0.173977 -1.70731 -2.36873 0.738099 0.551375 -1.08961 -1.37353 1.33541 1.06097 1.19555 -0.0820939 -0.537239 -0.700347 -0.251299 0.611679 1.07711 2.16559 0.609556 0.809098 1.6794 0.852017 1.22948 0.452634 0.509628 -0.495648 -0.201943 -0.0584431 -0.69131 -0.938455 1.68775 -0.93445 -0.0463819 0.606144 1.16756 0.96191 0.734343 -0.744965 0.344159 0.6977 2.55044 0.649404 1.8195 2.19417 -0.831464 0.0772045 0.105618 -1.81392 -1.29603 1.4908 1.07977 -0.496408 0.886202 1.08997 -0.118464 -1.99035 -0.340474 -2.30093 -1.02468 -0.808572 -0.220046 0.965884 -0.0202725 1.85893 -0.667504 -0.136856 -0.953948 -1.34487 0.480744 -1.96842 -0.277298 -1.4279 0.286811 -0.41421 -0.16187 1.09355 -0.499682 -1.36551 -0.611053 -1.11731 0.589451 -0.0370771 0.555036 1.84344 -2.11342 -0.617398 -0.249482 0.483488 1.0919 -0.0814322 -1.54913 1.16268 -2.64185 0.905249 0.041017 -0.188766 -0.0295631 1.2922 0.202887 -0.173735 1.47611 -0.409899 0.0879396 1.02131 -0.923534 -0.599305 -0.668542 0.859837 0.62428 0.565286 -0.727452 1.36814 -2.15976 1.43557 -0.582614 1.05786 -0.133048 0.170089 -0.207949 -0.458176 1.36093 -0.85305 0.196538 -0.0207407 -0.876686 0.748369 0.422626 -0.202599 0.511841 -0.155567 1.19436 0.794812 -0.0646676 1.95035 0.985256 -0.280118 0.366696 -1.55742 0.0442769 0.0337366 0.876266 -0.378643 -0.126885 0.353819 0.462956 1.82045 1.45657 -1.06992 -0.279593 -0.024181 -1.04344 -0.962619 -0.333847 -0.662826 -0.684474 1.9673 -0.692168 -1.40267 0.266687 -0.983175 0.96146 0.535057 1.65411 0.375621 -0.745528 -1.02029 -1.15218 -1.11548 0.634679 -1.13436 -0.257117 -0.32279 -0.227182 -0.123151 -0.718695 1.85002 -0.731561 -0.84781 -1.60062 -0.731563 1.00018 1.08773 -1.00346 -1.67486 -0.524611 -0.279592 1.79615 0.956872 0.406429 -0.300687 -1.82521 -1.48077 0.758524 0.568215 -0.115515 0.54171 -0.170122 0.752052 2.07281 -1.80797 1.31104 -0.267457 0.980517 0.419261 1.18586 0.210761 -0.852734 0.121769 1.81894 -0.119973 0.849263 -0.467635 0.0893834 -2.06897 0.279006 0.566386 1.37755 -0.940852 -0.310529 -0.37936 1.79489 1.38654 -0.488263 0.150948 -0.632522 0.108532 -1.54412 0.129722 -1.05257 -0.663832 -0.181048 0.948922 -0.899176 -1.76769 -0.854949 1.1782 0.0168146 0.874717 0.753802 3.05544 0.122929 -0.45078 -1.20269 1.41482 -1.10277 -0.71676 0.750774 -0.886722 -0.945446 1.59856 0.211691 1.1731 0.0968493 -0.434038 0.36549 0.419502 0.500196 0.655284 -0.933424 -0.74712 -0.146946 -1.19628 1.29173 -0.0585139 -0.549908 0.0747566 0.215476 0.487424 0.648836 0.326197 0.0851256 2.30513 0.402448 -0.442804 -1.27727 -0.298167 -0.856644 -0.41314 -0.656328 -0.826767 0.777102 0.554347 0.172157 0.277494 -1.68768 0.266977 -1.70054 -0.0674105 -0.459881 0.260193 1.61517 -1.17384 -0.39177 0.832129 -1.34994 1.26983 0.7129 1.57628 0.415489 0.251033 -1.583 -0.436025 0.0363596 -1.2426 3.55782 1.55312 0.553249 -1.66558 -1.07661 0.34255 0.146478 1.98822 1.39364 -1.78079 0.983413 0.279502 -0.850134 -0.75071 1.63189 -0.0532974 -0.904452 0.807358 -0.200268 -0.945369 -1.28886 -0.942794 0.813714 -1.21721 -1.44236 -2.2841 0.598751 1.30493 -0.772682 -0.0106359 -1.6894 0.25896 -1.04894 -0.407695 2.08478 -0.304786 -1.54156 -0.173425 -1.06985 -1.06157 2.27651 -1.1379 0.901253 -0.894528 0.0519413 3.25632 -0.0643364 -1.36025 1.39568 -1.01967 1.10733 -0.986753 0.218611 -0.579472 0.060895 1.43799 -1.49072 0.35977 0.185498 -0.814056 -1.40782 -0.979913 -0.528201 0.200642 2.3499 -1.16016 -0.654069 -0.285198 2.73214 -0.150212 0.607848 -1.53602 -0.860222 0.296354 0.126519 1.24637 -0.395459 -0.694459 0.126833 1.49792 -0.204251 0.212826 0.733211 -1.1438 -1.87963 -1.53302 -0.868884 1.91274 1.38511e-16 0.21993 -0.599167 -1.81255 1.54207 -0.396388 1.83778 0.313896 -1.68828 1.27715 -0.942748 -0.283266 -1.07229 -1.94343 0.53075 0.801673 -0.290974 1.59252 1.59042 1.45762 -0.229721 1.12307 -0.875135 1.72398 -1.61399 0.445725 0.235862 -0.153713 1.14197 1.07952 -0.78668 -0.23226 0.913215 0.700013 0.0648191 0.376438 -0.419169 -1.02937 -0.470272 -0.284113 1.03831 0.84746 -0.378022 -0.244823 -0.740967 0.601261 -0.223956 -0.798225 1.02827 -0.367656 -1.60352 0.42789 1.2663 -0.241882 0.861973 0.197319 -1.40928 -0.406214 0.334897 1.60688 0.704842 -0.392682 0.925022 0.958997 -0.00409185 -1.17535 1.80566 -0.258925 -0.233544 0.592876 -0.314436 -1.06584 -0.298706 -2.09673 0.11518 -0.334527 -0.787874 -1.04133 -1.87183 1.48501 -0.511127 -0.0877382 -0.249349 -1.08153 -0.647735 -0.773125 -1.47195 -0.0322202 -0.235279 -0.975122 -0.677123 0.175479 1.27525 -0.354927 1.13311 -1.27599 0.621651 0.767018 1.52688 1.27653 0.746003 -0.755268 0.305866 1.32463 0.26141 -0.716775 1.19712 -0.521004 -0.30562 1.69268 1.02752 -0.441604 0.766974 -0.207307 0.140762 0.341699 0.384301 -1.23994 1.60403 0.0231591 0.764094 0.0208976 0.506732 -1.29476 0.106686 1.31925 2.97689 -0.114468 1.68843 -0.591307 -0.875049 0.468054 0.987126 -0.765865 -0.244956 0.916643 0.581197 -0.528856 0.81504 0.429927 -0.742071 1.66142 1.47836 -0.850777 -0.864164 -0.151262 0.626515 -0.156073 -1.45396 -0.409304 1.31933 0.424352 -1.03866 -1.03165 -0.917436 -1.36493 0.353132 -0.454172 -0.330774 0.830274 -1.66049 0.489094 1.62713 1.44036 -0.0210794 0.877466 0.15554 0.331229 -1.05828 -1.05429 0.210619 0.756425 -0.03217 0.240397 1.23775 0.891567 -0.975706 0.360945 -0.421993 -1.04153 1.50078 -0.0564647 -0.72105 1.54917 0.15516 -0.377081 1.33156 -0.506655 -0.492358 1.20378 0.822562 -0.835315 -0.0255178 1.00952 -2.58196 0.684241 -0.867777 -0.848362 0.369748 0.197849 0.0155669 1.46724 -0.739473 0.0991036 -0.468967 0.720457 -0.0868245 2.07671 -0.575802 1.01762 -0.808582 0.811056 0.684368 -0.726904 -0.450069 -0.179493 -0.423266 1.69185 -2.24454 -1.35577 0.3299 0.563726 -0.343211 1.86756 -0.842084 -0.134599 -0.607343 0.353441 0.395871 0.0664007 0.669767 -0.433064 -0.821212 -1.25509 0.815638 2.59042 0.302578 -0.267556 0.378733 0.985403 -0.173867 0.580785 -0.262387 -1.14859 -0.09487 0.148355 0.298536 0.534499 1.80197 0.428395 0.306066 -0.852317 -0.45249 -2.1847 -0.0696336 -0.658489 -0.478486 -0.132349 0.949545 0.0532424 0.28844 1.42311 -2.80351 -0.886695 0.796674 -1.38922 -0.056458 -0.683945 0.147522 -1.33445 1.47277 -0.0401681 -0.513908 0.318564 0.233386 0.498767 -0.217127 0.818714 -0.0505524 1.01036 -2.17769 0.647533 -0.930608 0.0537056 0.730032 -1.50938 0.702983 -2.40901 -0.643107 0.76408 1.49708 1.40489 -1.03036 0.401208 0.337849 -0.488044 1.74747 -0.109261 1.28635 -0.0601311 -0.102366 0.564731 -0.168566 -2.18365 0.114083 -0.336588 -0.309868 -0.837869 2.59369 -0.232341 0.356288 0.465473 -1.09793 -1.18 -0.204331 -1.14059 -0.427809 0.868095 0.541748 -0.126943 -0.561136 1.22291 -0.0410566 -0.110343 1.96383 -0.568777 -0.559977 0.638277 -1.0701 0.435485 -0.255578 -0.651232 -1.34817 -0.0965687 -0.167328 -0.433666 -0.671114 1.23559 0.0437765 0.920583 1.33114 1.00994 0.848134 1.93804 0.139837 -0.317921 -0.819737 -0.837109 0.675867 -0.138793 0.00212883 -1.65715 -1.73128 0.414673 -0.347536 0.740523 -1.69792 -0.0424637 -0.949991 -0.350183 0.834427 0.177703 0.0879938 1.62295 -1.40814 0.889434 0.0545964 1.13094 -0.265544 -0.285857 0.158552 1.3399 0.686341 0.365162 -0.371191 0.469137 1.74247 -0.673153 -0.519558 -0.906518 0.310825 -1.01241 1.13799 -0.888587 0.839184 -1.19788 -1.14872 -0.425557 -1.52669 2.26781 -0.0398521 0.187057 -0.322013 -2.0255 -1.05693 -0.258016 -0.0487754 2.28264 -0.0237036 0.431181 0.794385 -1.37164 -0.502064 0.258147 0.0821668 1.30256 0.444301 1.57583 0.0926959 -2.03591 0.997533 0.621607 0.0547254 -0.343946 -0.63503 -1.38017 1.39628 -0.825788 1.26067 0.7514 0.413086 -1.31172 0.849055 0.233556 -0.50037 -1.52821 -0.229447 0.0502264 -0.685096 -0.0771266 0.774948 -0.293557 -0.784581 -0.338919 0.70711 -0.788032 0.518244 0.618579 2.03612 0.606018 0.672893 -1.19797 -0.266879 -0.0750346 -1.36759 -0.859236 -1.42621 -0.352828 -0.432422 -1.74462 -0.203066 -0.874768 0.960669 0.75269 0.503013 1.90838 -2.42129 -1.61326 0.889843 0.193618 -0.207442 -0.0174867 -0.0381494 0.0563105 0.087877 1.05952 1.74492 -1.37268 0.154279 1.36399 -0.256133 0.702611 0.109904 -0.382618 1.08368 -1.32117 -1.17421 -0.102939 0.22516 -0.443032 -0.231048 0.597758 0.971339 0.696882 -0.623465 -0.86971 1.45522 0.200322 -2.42242 0.21272 -1.09852 0.840758 -1.08782 -0.0478742 1.71558 -1.44309 0.35342 -0.253852 -1.97883 0.692257 -0.425519 1.64094 2.05994 -0.084992 -0.362533 -1.11596 -0.157598 0.454316 0.583791 0.857955 -0.238629 -1.723 -0.533426 0.63914 0.0190348 -0.00442735 -2.10456 2.7809 0.565834 -1.18276 0.456048 -1.49803 2.1438 2.53713 -2.05972 0.341772 -0.622177 1.21096 0.762413 0.511541 0.276211 0.23769 0.439678 -0.572683 2.2703 0.505577 -0.413299 -0.849805 -0.780798 0.381058 -0.708341 0.298707 1.06527 2.72796 -1.32901 0.902494 1.75929 0.636546 0.145365 -1.64188 0.716981 0.0128218 -0.470178 -0.0146229 -1.22268 -0.510217 1.20003 -0.592792 -1.18356 0.428688 1.64464 -0.000780611 -0.836164 0.743713 0.630585 0.488045 -0.500776 0.0199781 -1.33847 -0.978389 -0.478565 0.0133762 -0.145743 0.999281 1.38994 -0.545061 -2.04682 -0.695788 1.98874 2.52831 0.0598773 -0.479182 0.24932 0.972497 -1.32048 0.110369 0.108374 -0.410488 1.81325 -1.75874 0.652869 -0.199436 1.00062 -1.51098 1.68511 -0.055931 1.15558 -2.38262 0.529056 0.0736823 0.195773 -1.85666 0.24041 1.77916 0.438922 -0.740777 0.383051 2.20539 -0.406766 -0.30296 -2.59706 -0.556266 0.378636 1.88563 0.474923 -0.257502 -0.224107 0.258365 -1.23486 -0.860506 -0.405944 1.35705 1.12429 -0.53823 0.657598 0.445023 -0.523606 0.967643 -0.403293 1.07829 0.0826961 1.99632 1.28651 -1.70101 0.919434 -1.05751 0.248038 0.577318 -2.33395 -0.406701 0.225834 0.524297 -0.721725 -0.178557 0.0685638 1.28018 -0.416879 -1.64051 0.303382 -1.1489 0.194787 -0.0408788 0.990765 2.48892 -0.965956 1.11756 -1.83209 -1.99216 -1.09949 -0.680537 0.692235 0.548471 0.00893899 -0.36362 1.45809 -0.544093 -0.192424 -2.22899 -1.49933 1.45605 0.705024 0.498372 -1.33056 0.951536 0.79869 0.731655 0.34933 0.320078 0.356172 0.477186 0.532528 0.59526 0.56181 0.745949 0.474652 0.353527 -0.293475 -0.661242 -1.23824 0.976327 0.0474997 -0.0532358 0.00298776 0.668832 0.815783 -0.112714 -1.14736 -0.877776 1.64937 0.270011 1.35275 -0.481417 1.20421 -0.64568 -1.38429 -1.79988 -0.369264 -0.316349 0.42594 0.549144 -0.638399 0.36011 0.629143 0.62906 0.679231 -1.64224 0.0139289 -0.558497 -1.13085 0.372098 -2.28177 -1.17474 1.93883 1.20642 -0.881886 -0.786758 -0.615654 -1.91268 0.801183 -1.85783 -0.520537 1.15851 0.265804 -0.629532 0.337652 -0.4736 -1.23346 0.320882 0.161198 1.42834 0.802543 -0.948437 -0.386823 0.451756 1.13888 0.00151505 -0.232563 -0.851234 -0.921744 -0.159369 1.45107 0.21532 -0.66529 -0.961503 -0.408204 -0.93582 0.483754 -0.998926 1.12483 1.16016 -0.277809 -0.744671 -0.281591 -1.58974 0.122018 0.234856 0.438244 -0.992026 1.09746 -0.642484 3.04098 -1.17046 1.42701 0.250975 -0.985448 1.91772 -0.190722 -1.228 -0.78805 -0.250307 0.0714542 -0.649637 0.190979 2.02105 -0.249524 -1.6489 0.869058 -1.29674 0.0959394 0.962262 -0.652256 -0.357525 1.29851 1.55887 -1.08372 0.803787 0.936981 1.2139 -1.42514 -0.386041 0.278074 1.05526 1.77476 0.0222162 1.31606 0.82974 -1.666 -0.197285 -0.447042 -0.0534904 -2.20659 -1.33756 1.84737 1.34216 0.642246 2.44136 0.790775 -1.49225 2.76011 -0.21514 0.562526 -1.51775 -0.636066 -0.357473 -1.35714 0.871076 1.14473 -0.365391 0.534402 0.905927 0.431129 -0.125891 -1.39043 0.379383 0.650735 0.324203 -0.665183 3.22244 -0.333196 0.949037 -0.34713 -0.128917 0.815618 -1.19145 0.363677 -0.157334 0.071414 -0.256056 -0.745307 0.525592 -2.88332 0.975321 0.000837319 -0.0115334 -0.574713 0.781752 -0.186035 1.06606 0.720185 1.34645 1.38076 -0.391462 -2.85585 0.377134 -0.215212 0.452887 0.0887214 1.20206 -0.27899 -0.310343 0.599133 0.560646 -0.342507 -1.67949 -0.162821 -1.02904 0.774187 0.714907 0.437462 -0.700403 -0.890626 1.9944 -0.031365 1.10018 -2.34219 0.193037 -0.248155 -0.545738 0.725977 -1.72724 1.75049 -1.02122 0.445322 -1.35703 1.29038 0.675087 -0.0661419 0.495003 0.732679 -0.0687545 -0.677445 0.183774 -1.26647 -0.363291 -0.138818 1.23382 -0.260651 1.26201 0.695395 -0.777165 -1.05651 -1.28734 0.467711 0.50011 0.0014398 0.510348 -1.0887 2.11868 -0.999284 -2.34072 0.398067 -0.23914 -2.0774 0.30611 -0.223333 0.0513648 1.32161 -0.277137 1.10711 0.243725 1.63461 1.16018 -0.470216 -0.236614 -0.909611 -1.02708 1.10661 -0.547695 0.515361 -1.45623 0.846722 0.34167 0.868674 0.107065 -0.59401 -0.765131 0.075516 -0.204745 0.139274 -0.775979 -1.4605 0.28448 -0.0283251 0.503586 0.00217268 0.486554 1.3067 -0.591607 -1.03336 1.99779 -0.162801 0.885488 -1.10381 1.76964 -0.224144 0.227708 0.0470736 0.00261006 0.724511 0.456804 2.14756 1.12015 0.454749 0.389363 -0.697194 1.83462 1.17104 -1.32062 -1.45792 0.0999141 -2.15385 1.62766 -0.783106 0.144912 -1.21095 -0.813113 -0.0280893 -0.312949 -0.286289 -0.671411 -1.22987 -1.09828 1.04674 0.138397 -1.20659 -1.10942 -0.675142 -0.873631 1.42052 -0.961055 -0.139631 0.393371 0.432999 0.0399063 -0.874519 0.990284 -0.323885 0.74333 0.279784 0.0439241 0.105677 -1.38089 -0.340457 -1.10868 -1.45583 -1.10268 1.63783 0.817451 -0.431981 0.1458 -1.57429 0.312866 0.22469 -0.41368 -0.997232 2.1545 -0.385056 -0.760128 -0.541968 2.07453 0.563605 0.413927 -0.53879 0.993554 0.361536 -0.363312 -0.489406 -0.624982 -0.31262 -0.78023 0.399219 1.13166 0.577972 1.39089 -0.5757 1.12042 -1.1064 -1.3218 -0.107604 -1.40699 2.01877 0.325184 -1.46439 -0.212949 -0.141597 -1.05227 -1.62778 2.09841 0.163707 -1.26248 0.0371726 -0.984012 -1.80862 -0.456586 -1.12531 0.30635 1.5171 1.77322 0.76844 -0.819198 -0.294182 -0.552379 -0.139312 -0.55756 -0.115611 -0.517883 0.0307621 0.460003 -1.50065 -0.218001 -0.756401 -1.67872 -0.98461 -0.02918 -0.00211463 -1.68137 0.575152 0.115083 -1.20666 0.445749 -1.50836 2.37302 -0.250397 1.38771 1.70332 1.65326 1.1485 -1.30665 -0.328256 0.342943 -0.207473 -0.401317 -1.62771 -0.465441 -0.702307 -0.10209 1.23555 -0.287272 0.973296 1.32042 -0.649252 0.197281 -0.332642 0.248108 -1.42088 0.599293 -0.407051 0.302255 -1.42149 -0.198841 -1.50094 1.36342 -0.0365352 1.46148 -0.209336 -1.03122 -0.818752 0.440347 0.103814 2.51555 0.0939387 -0.429045 -0.786219 -0.160462 1.08065 0.485303 0.308876 -0.379555 -0.266207 0.0451407 0.202454 0.739227 0.550197 -1.62478 -1.31519 -0.136694 0.146866 0.215553 0.000425585 0.589095 0.0643519 -0.19168 -0.84187 1.65365 0.726447 0.378636 1.288 0.585613 0.679535 1.2732 -0.000169531 -1.3784 1.17622 -1.70282 -0.122932 0.43956 -1.05152 0.603764 -0.100795 -1.55856 -0.472217 -0.645171 0.600441 -1.54561 -0.245714 -1.34679 -0.16477 0.900673 -0.598543 -1.00311 0.10404 0.51146 -1.36521 -0.0458349 -0.0104789 -0.618203 0.963341 -0.207486 0.106158 -0.415372 0.0487838 0.394805 -0.0789291 1.30633 -0.634949 -0.316758 0.938402 0.83061 1.1706 -0.952025 3.0213 -1.01788 1.27454 0.858472 0.0543308 -0.426535 -0.0123099 -1.20525 -0.775693 -0.0490942 1.90614 -1.36378 2.07387 -1.90076 1.3507 0.309315 -0.809864 -0.191544 -1.24624 -0.827651 -0.894724 0.395538 -1.10594 0.443294 1.80868 -0.488789 -0.14463 -1.94177 1.76393 -0.968076 -0.966701 -0.565704 1.7649 1.45476 0.0341584 -0.545125 -1.83054 0.172468 -0.511294 1.39151 0.818162 -0.901247 0.655969 -0.146975 -0.115325 -1.93603 0.768302 0.607106 -1.03594 0.94005 0.261294 0.421114 0.264851 0.985215 0.677033 0.077054 -0.497026 0.849021 0.561749 -1.04853 0.0956405 -0.176394 -1.48451 0.905161 -0.498427 -0.0168213 1.91337 0.946456 0.247287 0.0717295 -0.178631 1.94585 0.327286 1.1853 0.648552 -1.58839 0.920324 1.52271 2.10382 -0.266161 2.04523 -0.3884 -0.980657 -0.915751 0.6173 0.163991 -2.25727 0.563182 -0.912545 0.480302 -0.128692 0.784938 -0.299457 0.560945 1.07298 -0.30148 -0.564382 1.25186 0.265522 -0.441569 -0.581884 0.112072 -0.366199 0.703357 -1.40941 -0.116755 0.578175 0.514967 0.228834 -0.675455 0.405075 1.1668 -0.997419 0.0903877 -0.671605 -0.329419 -0.481761 2.37175 -0.541032 1.11385 -0.252534 -0.941827 -0.852019 -0.779503 1.24099 1.19632 -0.395314 0.497469 0.77294 0.865894 0.23382 0.660616 -1.72747 0.509702 -0.941534 1.48917 1.11457 -0.751134 1.05561 -1.15584 0.427173 -0.622795 1.16269 -0.239488 -1.29094 0.490778 -1.23424 -2.34562 -2.43244 1.84855 0.529069 -0.341653 -0.737677 0.877769 0.155312 -0.417442 0.353123 -1.55683 -0.984038 -0.645424 1.36993 -1.0037 -1.46065 -1.94666 0.978529 -0.0667284 0.0593523 0.0143698 0.889888 -0.54903 -0.810143 -0.0152351 0.539149 -0.209321 -0.719458 0.506968 -0.708714 -0.916982 1.57484 1.87245 1.33037 -1.32622 0.0286813 -0.0830493 -0.587758 -0.344661 -0.0522893 -0.252357 0.742039 -0.181923 0.00536969 0.253353 -1.71076 1.28385 -1.02979 1.03644 0.477148 -0.0410981 1.4835 -0.324526 0.0986437 0.982031 -1.72589 2.18895 0.788364 -1.03589 -0.110095 -1.08103 -1.15658 -0.102496 -1.21468 -0.27262 2.23748 1.76301 -1.06329 -0.564563 -0.518919 2.04504 -0.62761 -0.66735 1.2382 -0.950046 -0.980995 -0.912162 0.372089 -0.947026 -0.979613 -0.16397 -1.43413 0.40485 0.763745 -0.128703 0.825147 -0.524627 -0.75617 -1.12045 2.2131 -1.35293 -2.73181 1.17423 -0.64307 0.719084 1.12732 0.384622 0.598179 0.891944 0.565184 0.16642 -0.194469 -0.352614 -0.624356 0.432269 0.424412 -0.785214 0.63631 0.232174 -1.27739 -0.170335 -1.1674 0.86224 0.818355 -0.267403 -0.86621 -1.25477 0.113435 -0.11249 -0.405872 -0.148332 -0.511803 2.16605 -0.670792 0.525249 0.417241 -0.583651 0.829403 0.813688 1.06881 0.552805 -0.563043 0.0452082 -0.674952 -0.850039 0.27907 0.338843 1.93954 0.632724 0.0708278 1.82897 0.0617214 1.52882 -1.74998 -0.92666 -0.642442 0.346584 -1.3499 -0.495668 -1.39764 -0.909248 0.899998 0.289099 -0.933539 -1.33182 0.245825 0.354886 0.0157714 0.225716 0.0655065 0.929959 -1.33794 0.363341 1.14027 0.409139 -0.511776 -0.269171 -1.13371 1.51186 0.281204 0.282944 -0.478862 -1.7 0.762187 0.801876 -1.23321 0.361063 -0.013816 0.325569 -0.753273 1.14636 0.747726 -0.352931 -0.937648 -1.81704 -1.49145 -0.654304 0.904039 -0.543766 1.48134 -0.546215 0.823787 0.00333455 -0.719308 -2.39312 1.30157 0.641799 -1.27921 2.39578 -0.209541 -0.388218 -0.0239692 -1.05985 0.307403 -0.0471085 0.481962 1.81896 0.363279 -0.945551 0.901261 0.0401614 0.873027 -0.94834 -0.207696 0.544643 0.913158 0.727059 -0.503736 -0.444648 -0.104381 -1.34795 0.320202 1.9354 -0.793285 2.12337 -1.15322 0.50364 -0.0852247 -0.177857 -0.892341 1.74728 -0.103867 0.658712 -0.897197 -1.75929 -0.838448 -0.285793 -0.0147605 1.39916 0.386298 0.23781 -0.895018 0.78893 0.219832 -0.0483812 -1.30419 -0.439871 0.412545 -0.769094 -0.538598 -1.37891 -0.629941 -2.30934 -1.73896 -0.740321 0.156622 -0.863858 0.601302 0.551505 0.720922 1.13192 -0.256383 -1.28336 -0.72271 1.50065 -0.240163 0.442706 -0.882792 -0.223105 -0.304401 0.117671 0.708947 0.0861248 0.422802 -0.482496 -0.0228761 1.04348 0.809898 0.43204 -0.279682 -1.23743 -0.853444 -0.652861 -0.482928 -1.5745 0.573253 -0.0375281 0.670596 0.133689 0.74233 -0.357139 2.11397 1.20222 -0.662279 -0.470997 -0.77318 -1.95097 0.0194678 -0.7122 0.380516 0.890519 0.0228731 0.408458 -0.271216 0.242732 2.05325 0.534047 0.832709 -0.275556 -0.378464 0.193702 0.771888 -0.599162 -1.1432 1.22003 0.156996 0.171183 0.419775 0.181633 0.829893 0.943541 -0.645022 -1.69224 1.20941 0.498722 -1.42155 0.0736103 1.10848 -1.62086 -0.407368 -1.17166 -0.0587187 0.304927 0.31623 -1.26662 1.05167 -0.930982 1.66113 -1.3713 -0.370046 0.773415 1.28778 2.28463 0.231024 1.277 0.406668 -0.463835 0.180813 -1.71031 -0.887142 -0.405071 0.734434 -1.03045 -1.89846 -1.55089 -0.483719 -0.122716 -0.204286 0.477184 0.232669 -1.47387 1.15253 0.887159 -2.23915 -0.884589 -0.63736 -0.652176 0.768351 -0.962822 -1.02117 3.02214 1.36858 0.547917 -1.25928 1.08972 0.393711 0.194756 -0.0613055 0.293997 2.36289 0.000976073 0.696624 -0.4926 0.0048142 1.15526 1.44152 0.0115353 1.61266 1.67763 -1.06081 -0.264982 -0.95316 -0.0797065 0.867935 -1.17004 -0.534623 -1.07211 -0.796513 -1.49245 -0.704672 -0.654462 0.566002 0.0316296 -0.185314 -0.919562 0.113955 -0.976154 0.0993605 -0.411699 -1.53355 0.977031 -1.20747 -0.73922 0.636243 0.170028 0.881208 -1.14068 -1.25029 0.174645 -1.5806 -1.98547 0.410986 0.522165 1.46106 0.912896 -1.31527 0.427645 0.718082 0.38444 -1.98053 -0.561367 0.297669 -0.526138 -0.755641 0.181665 1.39781 -0.412798 -0.260091 0.485312 -1.56456 1.07759 1.55474 0.745915 0.240587 -0.12684 -0.164975 0.105576 -0.213918 -0.344102 -1.48191 0.652398 0.545099 0.191151 -0.126869 -1.41047 0.0814003 0.912888 0.492541 0.114487 0.0548885 -1.14684 -0.653477 -1.15415 -0.370941 -0.389242 -1.14041 -1.88804 -0.419008 -1.36445 0.65607 -0.242668 -1.13531 1.92446 0.614948 0.498397 -0.289371 0.0243466 1.61807 -1.01077 -0.434627 -0.420542 -0.739579 0.186849 -0.936359 -2.01585 0.186496 -0.127603 0.430864 0.348477 0.166092 -0.0280981 -0.457583 0.517165 1.36893 -0.0525924 1.44581 0.303931 1.20941 -0.7662 0.275685 -2.17485 0.234093 -1.61897 -0.763469 0.446659 -1.33851 -0.191208 -1.11982 -0.277667 -0.590503 1.10132 -1.82044 0.527558 1.30634 -1.83849 -1.1441 0.218613 0.187714 0.399664 -1.29439 -0.14765 -0.779113 -0.0347775 -0.633328 -2.27262 -0.0974791 -1.30294 -0.224397 -0.781845 1.79508 -0.480323 0.335164 0.80712 -1.04847 0.393858 0.147788 -0.148809 -1.09651 1.3459 1.75154 -0.0950263 -0.797136 0.249328 0.740897 -0.737063 -1.16576 0.216896 -1.03501 0.689798 1.03179 -0.186487 -1.09676 -0.323142 -1.12574 0.739792 2.89752 0.0922491 1.75336 -0.885607 -0.580135 0.612389 0.979073 1.35202 0.298512 0.445897 0.833122 -0.675426 0.632027 -0.0687002 -0.333627 -0.868856 0.0398092 0.469567 -0.950166 -0.297086 0.539608 -0.42287 0.705405 -0.254239 -1.22889 -0.0125043 -1.58204 -0.0496783 0.712067 0.03352 1.59808 -0.266974 1.55608 -0.660688 1.06489 1.20377 -1.33655 0.937793 -0.116859 -0.884293 -0.354546 -0.736724 0.313212 1.10467 0.0952038 0.438219 0.514209 0.981359 -0.682033 1.78712 -0.631595 -0.575666 1.91756 -1.63345 -1.04433 0.576668 -0.118591 -0.925636 -1.05262 -0.750543 2.14159 -1.7551 -0.427714 1.01927 0.000153805 -0.447019 -1.3073 -1.17667 -0.804154 -0.0937586 -1.16661 1.40573 1.9453 0.306096 0.00644969 -1.06058 -0.986673 0.0988943 -0.815278 -0.250734 -1.54963 0.87493 -0.125968 -0.236517 0.590197 -1.92297 0.204159 1.34676 -0.0453848 -2.35839 -0.589372 -0.735683 -0.313448 -0.244079 0.639693 0.753557 -0.912508 -0.594222 1.29077 -1.30307 -1.49276 0.0443446 -1.04892 -0.190097 0.696271 -0.10868 0.458902 0.407152 1.1131 -1.60284 1.31589 -0.853508 1.39135 -0.58322 2.07585 -1.00753 -0.370438 1.1362 0.360578 2.16357 -1.26564 -0.663799 0.288615 1.39371 0.274433 0.323335 0.225632 2.1143 0.247182 -0.403183 -0.185905 -0.16837 -0.435816 -0.681899 0.567136 0.743641 1.28134 1.63929 -1.17863 -0.507466 -0.0152173 1.59248 -0.376277 -2.25391 -0.328195 -2.70836 -0.514324 1.36926 0.552908 -1.39113 -0.408865 -0.638296 -2.40395 -0.892334 1.5891 -0.431143 -0.024699 1.19748 0.215478 -1.14571 0.582979 0.715703 -1.46352 0.511748 -0.710156 -0.874244 -0.268864 -0.296635 -1.24133 0.30882 -0.385443 -1.25217 -1.27987 0.94041 1.61527 1.65739 1.3125 -0.0293057 -0.464353 -1.26919 -0.1565 -0.445679 -1.68851 0.432476 0.0930007 -1.92889 -0.293374 -0.292904 0.840288 -0.683891 -0.170061 0.977268 0.145317 -0.828217 -1.65133 0.666056 0.998747 -1.56703 0.498537 -1.69181 -0.251047 1.27578 0.663497 1.50204 -0.490987 -2.32152 -0.390701 -0.39984 1.16607 0.458504 -1.2997 -1.47938 -1.27074 0.111372 0.934386 1.25945 1.26509 -0.0788566 -0.2339 -0.401099 0.732257 1.14179 1.44748 0.558906 1.02564 1.42729 0.860037 1.40849 -1.62125 0.287678 0.417093 -0.972036 0.321824 -2.63829 -1.88305 -0.0130588 -0.0551409 0.400749 -0.989351 0.0505225 -1.83751 0.199662 -1.31043 0.0949423 -1.59516 -1.0322 -1.49947 0.982536 2.18339 -1.77785 -0.0158513 1.55875 1.26141 1.35749 -0.579086 0.604391 -0.950814 0.650531 -0.0394143 0.389053 -1.64991 -1.08851 -0.375848 -1.01375 -0.591024 0.664821 -0.693993 -1.191 0.653512 0.523357 -0.565791 0.152746 0.240151 -0.989347 0.345034 0.11354 -1.01042 -1.42094 -0.416426 -0.630186 -1.33072 0.0404088 -0.285751 0.452708 -0.221855 -0.906912 0.426202 1.88708 -0.676191 0.914299 0.352578 -0.934178 -0.433198 1.39665 -1.90906 -0.826018 -0.00961194 0.379475 -0.900161 -1.63235 0.661267 -1.10478 -1.01466 0.804855 -0.63223 1.58915 -0.348376 0.537843 0.398604 3.35462 -0.4514 -1.50381 1.63919 -1.72681 -0.820432 0.00765061 -1.20983 0.489083 0.815298 -0.967685 0.212217 0.38272 0.385953 1.04552 -0.730899 0.190965 0.589204 0.987074 -0.165935 0.316285 -0.241766 -0.292947 -1.91837 0.297334 -0.156215 0.873523 0.342406 0.0882816 0.304636 0.251714 -1.67519 -2.13707 -0.611394 1.33557 -0.136813 -0.0746603 1.40827 -0.428031 -0.594492 1.83414 0.741588 -0.429888 0.276728 0.363985 -0.378426 0.943508 0.903334 1.38533 -0.613224 0.505826 1.8423 1.3125 -1.09216 -0.101567 1.40443 0.636382 -0.41368 1.04405 0.672993 1.24363 0.360723 0.58012 0.818267 0.0552871 -0.170834 -1.25688 -0.352862 -0.0690312 1.44429 0.529995 -0.241901 0.54836 -0.170752 0.651825 -0.331199 0.450763 -0.218922 0.260997 0.878085 0.59429 -0.447981 -0.460953 0.496822 -0.161409 1.4234 -2.31072 -0.0111384 -1.01421 -1.01435 0.682445 1.52598 0.635601 -0.67183 0.708435 -0.182819 2.32023 -0.401865 0.0080973 -0.318939 0.151108 0.591449 -1.99986 -0.222927 0.640901 -0.641848 -0.0216769 1.32074 -0.484063 -0.751806 1.04048 0.207049 0.312842 -0.105926 0.610598 -0.602492 -2.31821 -0.0709636 0.535768 -1.25371 -0.539199 -3.58702 -1.57261 0.0109737 -0.917915 1.95306 0.65343 0.206416 0.346562 0.880352 -0.750874 0.290871 -0.485701 0.941785 0.764133 0.47321 -1.22329 0.652325 2.85513 1.14131 -0.0558405 1.00115 0.356551 0.0273358 -1.11605 -0.775695 0.060649 -0.069372 0.546248 1.07155 0.560889 0.224072 -1.86514 0.666333 0.808881 0.724565 -2.00721 -0.503537 -0.218064 0.547467 1.6635 -0.825244 -3.30678 -0.211774 0.694297 -1.33719 -0.850754 -0.831259 -0.00803352 0.191015 0.326521 -1.28175 1.70111 0.106935 -0.574674 0.39333 -0.662918 0.303172 -0.840641 -0.379137 -1.53899 1.06911 -0.457738 -0.430107 0.237953 1.2382 0.677974 -0.373658 -0.759656 1.00475 -1.03294 0.84481 -0.273495 0.163248 0.554343 0.045107 -1.17793 -0.473198 -1.14262 -0.111073 -0.252419 -0.105979 0.772937 -0.648836 0.937326 -1.60129 0.0866559 1.13626 -2.09335 0.465544 -1.45463 0.708179 0.363725 -1.26723 1.3616 0.535481 -0.369268 0.956629 0.676082 -0.767701 -0.361759 -0.441767 -0.547265 -0.537278 -0.917697 1.41705 -0.383759 0.553106 -0.360201 -0.410297 0.556804 -0.0226594 1.19414 1.85812 -0.412539 1.27455 -0.491276 0.934885 -0.150876 -1.23384 -0.285522 -0.324499 0.404377 1.92877 0.128099 -0.367015 1.62514 -0.412567 -1.44414 -1.53035 1.4227 0.842964 0.0770904 0.984476 -0.500666 1.91912 0.745471 -1.35194 0.950784 -0.587644 1.12661 -0.0277109 -1.13136 0.0974259 0.67945 -0.278624 -1.07645 -0.581357 -0.564295 -0.176465 -1.20818 0.16346 -1.12151 -0.97563 -0.451706 0.607758 0.525923 0.725623 -0.266818 1.10226 -1.47429 -1.15278 -0.353191 1.83112 0.757881 -1.06326 -1.1887 0.0158272 -1.47398 0.963662 -0.296867 0.485493 -0.260557 -0.510456 -0.130122 1.37877 -1.19977 -0.0231602 -0.76493 0.09736 0.918517 -0.737904 0.442803 0.448243 -0.833658 0.245887 -0.195324 1.66568 0.600035 1.32355 0.110982 0.307861 0.456884 -0.631677 1.05136 -0.101881 0.331864 -1.43168 -0.97928 0.966319 0.804214 0.723251 -0.139896 0.250293 0.0405276 -0.365985 -0.835316 -1.77242 0.789307 -0.499016 -2.60504 -1.24354 0.41487 -1.04629 0.0795054 -1.82496 1.35448 -0.805449 -2.47124 0.999716 0.27802 -0.971141 0.0699464 2.52048 0.194058 0.424887 -1.41387 -0.735121 -0.184214 0.0666609 1.05512 0.286422 0.111777 -2.16559 1.39576 0.92316 -0.957378 -1.1739 1.01021 0.692954 -1.4792 0.160775 -0.81444 -0.905376 1.09974 -0.286809 0.725321 -0.98525 -0.217121 0.13063 2.11202 0.390867 -0.237123 -0.646272 -0.601068 1.09633 -0.184258 -0.697175 1.46105 -0.0747656 0.674771 0.927344 -0.177404 1.03059 -0.826895 1.16774 0.32506 0.749027 0.945632 2.03599 2.08649 -0.50095 -0.143401 -0.497387 1.40615 0.834536 2.56552 0.257679 0.57752 1.09207 0.517354 0.0721966 -0.0937325 0.893163 -0.247671 1.22198 -0.352684 1.48491 -0.159715 -0.808772 -0.000143103 -1.14722 0.881969 0.124806 -0.187245 -0.403698 -1.13371 -2.14512 0.629076 -0.504607 -0.12001 2.18969 -0.398638 -0.614205 1.03922 -0.886069 0.0396673 0.066527 1.46261 0.119291 0.48612 0.733539 -1.2259 1.38177 -2.48098 -0.0997162 0.166916 0.671027 1.90372 -0.529618 1.32908 -1.46185 -0.936422 0.623494 1.4932 0.475741 0.686458 1.67817 -0.371402 1.45044 0.428837 -0.0569295 0.548285 -0.447138 0.387902 0.347264 -0.211891 2.97078 -1.0073 -0.354548 -0.390596 -1.61357 0.220794 1.35666 0.125079 0.228757 0.584351 -1.99443 0.416592 -2.19676 0.581612 -1.46825 -0.198818 -0.122796 -2.76633 -0.0848416 0.528706 -0.259519 -0.336632 -0.12443 -0.282235 0.588936 -0.61953 0.203355 0.72592 0.511485 -0.377428 -0.433567 0.644849 -0.0536805 -0.779333 -1.16631 -0.364901 0.232716 -0.456018 -1.85538 0.342385 -1.21509 -0.44051 1.17964 -0.158733 0.254448 0.930879 -0.695409 -0.22049 0.26921 0.0341101 0.697091 -0.905649 -0.811763 -0.292319 0.724567 -1.10016 0.379068 -0.689117 -0.753201 -0.935439 0.421536 -0.122317 0.774725 0.828021 0.663964 2.68312 1.54761 0.387504 0.983575 0.736963 0.217271 1.5283 0.812602 0.250258 0.270072 -0.0423787 -0.354234 -1.00692 1.13237 -0.874068 -0.507561 1.26307 -0.414467 -0.314369 -1.80915 0.477974 0.30189 -0.950061 -1.36562 -0.92635 -0.180764 -0.017931 0.155932 0.725232 -0.523797 2.2265 -0.165098 2.15366 0.570707 0.111772 -0.192349 0.110947 -0.381697 -0.0708195 0.074035 -0.584124 0.0679497 -0.649076 -1.09448 -0.909725 -0.206075 -0.480709 0.434192 1.11985 1.0244 -2.08184 0.0550897 0.196735 1.8811 -0.14598 0.603872 -0.499383 0.410356 -0.0316019 1.31736 -1.22318 1.4582 -0.159405 -1.72211 -0.0636882 1.59417 0.25083 0.549973 -1.45745 1.774 -1.20372 -0.903739 0.269096 0.223436 0.581629 0.0325569 -1.1188 0.882424 -1.08308 1.10925 0.433319 1.30871 0.22525 -1.09066 0.503973 -0.519412 0.548844 -0.456128 0.320368 0.868127 -0.937472 1.14701 0.276891 -2.48064 -0.372169 0.753842 -1.95946 -1.8723 -0.897078 -0.50907 -0.694014 -0.241314 0.768528 -0.553933 0.432146 0.122243 1.01271 0.303125 1.14304 1.41366 1.31528 -0.922601 -0.0599025 -0.212104 1.84248 -0.61678 1.07443 2.14891 0.365227 0.288255 -0.772819 0.289216 -0.492379 -0.463343 0.104605 0.192558 1.70567 -1.54149 1.10069 -0.0794287 1.32732 -1.91169 1.1693 0.274191 -1.86159 0.30582 0.125461 0.0653049 0.832308 0.0990144 0.186035 0.266144 -0.685024 -0.114554 -0.215891 -0.184262 1.52587 0.84367 -2.30088 0.731383 -1.41387 0.0612862 0.896798 0.0961069 1.94071 -0.402239 -0.822929 -2.46172 1.11955 -1.3566 0.26177 0.244319 -2.04447 1.07696 -0.688509 0.723996 0.446052 0.622325 -2.18051 -0.038172 -0.806659 -0.038737 0.0312915 0.35614 -1.48135 0.971185 -1.11887 0.032343 0.115878 2.03721 -1.20661 0.363776 -0.0658592 0.829276 -1.25856 0.712975 -0.0840173 0.10881 1.34491 -0.473046 0.700738 -0.416116 1.60886 -1.55915 1.1704 -0.12676 -0.719019 -0.659733 1.55363 0.809324 -0.0886327 1.00104 -1.68097 -1.26646 -1.17702 -0.397795 1.37406 0.733287 0.292679 0.0833948 -0.322927 -1.48562 -0.339106 0.980657 0.309649 -0.981383 -0.320757 -0.749619 -0.3937 0.0557259 0.4444 -0.444994 -0.968815 2.11325 -0.529994 -1.34357 0.742213 0.140481 -0.393079 1.91033 0.503258 -3.00994 1.13765 -0.0897941 -0.374361 -0.134945 -0.04279 -1.08577 -1.0376 1.11156 0.0910544 -0.926209 -0.448597 0.592631 -0.407881 1.13121 -1.18078 -0.51446 0.719162 -0.581153 -1.19973 1.27586 1.90077 0.494818 -0.444144 0.722516 -0.532344 -0.061067 -0.728152 0.973508 -0.718677 -1.5984 0.0363275 -1.79518 -0.909381 -0.233648 -0.203665 0.787364 -0.139941 -0.543049 -1.62202 -0.611843 -0.0155287 -1.5849 0.489725 1.15562 0.791348 0.554003 -1.13658 0.505323 -0.717032 -0.916822 -1.28193 0.0130535 -1.05354 -0.893919 -0.422874 -2.58308 0.262325 -0.276125 -1.91582 -0.404681 0.577016 -0.333972 0.507781 -3.33174 -1.01872 -0.867408 1.40621 0.487044 0.588781 1.08157 -0.0598665 -0.687783 1.14324 0.653392 0.958532 -0.138319 -1.12361 -0.163011 0.881081 -0.963439 -0.200528 0.0790235 -0.529516 2.03011 -1.41318 -0.644105 1.16818 -0.0608451 -0.950397 0.261965 -2.23711 0.95096 -0.744996 0.149447 -0.0669346 1.49501 0.731671 0.221016 -0.323494 -0.0861767 0.699643 -0.597465 0.324212 0.15039 -0.593478 0.116859 -0.591353 -0.3641 -0.867067 1.58147 -0.449764 1.15086 0.764853 0.41784 0.128357 -1.43313 0.863196 2.18581 0.0738451 0.469074 -0.841976 1.02942 -0.446027 -0.592808 0.0966313 -1.31112 -1.52239 -0.242149 -1.12547 -0.0310716 0.307488 -1.06752 1.46625 0.440788 -1.4409 -1.40582 0.750769 -0.429939 0.789037 -0.502935 0.251416 0.415585 -0.309077 -1.49518 -2.93676 0.51479 0.658464 0.404202 -0.422489 -0.631151 -0.454875 -0.554321 0.434229 -0.155384 0.954752 0.0567115 0.920055 0.775058 0.620046 -1.61989 0.063425 -0.250932 -0.45095 -1.7242 0.0226834 0.01773 0.100788 0.130935 -0.873748 -0.870477 -0.129673 1.63082 0.157083 -0.842001 1.00753 -0.592252 0.915505 1.12946 -1.1098 -0.352064 -0.0898256 1.18116 1.07062 2.15022 -2.00444 -0.112043 -0.0371094 0.342592 0.29488 1.45518 -0.281184 0.167898 -0.494934 -0.334601 -0.488535 0.647124 0.93662 -2.10346 0.26833 0.892554 -0.863398 -1.81925 0.636371 -1.37755 -0.661838 -0.956161 -0.393218 0.266839 -1.43568 0.563392 0.843094 -0.330397 -0.00534519 1.86082 0.500157 0.519281 -0.620647 0.867643 1.1094 0.557822 1.29657 -0.312716 -0.445963 -1.43068 0.969366 1.14408 0.989387 -0.525276 0.342333 1.2402 -0.263751 0.461581 0.401202 0.528891 0.199114 -0.101166 -0.752237 -0.170074 -0.376057 0.473708 -1.57577 -1.49684 0.0638364 0.783778 0.220189 0.226329 0.966315 0.605216 -1.03755 0.381339 0.285713 -0.308152 -0.0059538 -0.750185 1.27345 -1.2088 0.435589 0.61241 0.183257 0.641331 0.0492319 1.30842 -1.90789 -2.53408 0.614351 -0.419072 0.657065 -1.02086 0.259636 0.944645 0.49143 -1.25988 -1.03181 -0.00253884 0.300689 -1.07588 0.89557 1.09293 -0.758362 0.337696 1.11724 0.0218068 -0.00529577 0.952816 -0.918889 -0.165455 1.05489 0.30464 -0.0544475 -0.843414 0.908454 1.11762 0.258569 -0.350539 0.777354 -0.386242 0.307324 -0.133608 1.06193 0.438677 0.813123 -0.755812 0.683012 0.647862 -0.033244 -0.112586 -1.5545 2.72808 0.704496 -1.45737 0.145197 -1.01828 -0.654585 -0.761332 -0.626613 -0.0736783 -0.805605 1.9142 0.671161 0.274857 -0.81421 -2.18514 -1.29106 -1.23167 0.202043 -0.587324 1.47208 -0.493064 0.658224 -3.11456 0.19965 1.19374 0.485499 0.434918 1.75168 -0.502825 0.697691 -0.107305 -1.89301 -0.285592 0.502952 1.12676 0.011654 -0.0177708 0.445764 -1.17343 2.53156 -0.0476778 2.85043 -0.847383 -1.40092 -0.561353 -1.23039 1.24207 -0.818697 0.850938 -0.839491 1.36275 -0.981181 -0.86953 2.11383 -1.22737 0.517572 0.164821 -0.675717 1.02589 0.238671 0.0318546 0.526304 3.12152 -0.469604 0.406944 -1.51187 -0.0534467 -1.01966 -0.827848 0.250572 -0.833224 0.0585678 -0.943978 0.136711 0.708536 -2.26597 -0.705169 1.29593 0.846146 0.430842 0.108999 0.603569 -0.0907453 0.606315 -1.83143 0.29694 0.573725 -0.767058 -1.17235 0.243476 -0.467522 0.188672 0.659649 0.196917 0.731788 0.423349 -0.846498 -1.59278 0.765222 0.38247 -0.972807 -1.02496 -0.636867 1.08318 1.38957 -1.24065 -0.148917 1.86103 0.815093 -0.166138 -0.290501 -0.615687 0.407418 0.80056 -0.376939 -1.08239 -0.280851 0.0425833 -1.22688 -0.720847 0.305513 -0.946017 0.238886 0.671773 -0.190233 1.50082 -0.421948 -0.156585 -0.167365 -0.807825 -1.21693 1.71131 0.621143 -1.01544 -0.218154 -0.240299 0.192595 0.0505416 1.29044 0.907059 0.777639 0.403484 1.72582 0.116833 -0.989826 -1.59809 -0.643819 -0.116922 0.0940114 0.365176 1.02471 0.462829 -1.05557 -0.987908 0.71495 1.05688 -0.0157379 -0.422914 -1.0552 -1.44211 1.38547 -0.888422 1.29345 0.719625 -0.565938 -0.184238 1.79353 -0.625645 0.490893 -0.605277 0.025244 -0.445366 1.12994 -0.10409 1.24459 0.275217 0.90016 0.0694055 0.00281034 -0.774466 -0.224391 -2.48382 0.317082 1.15169 -0.614915 -0.94796 0.226371 0.390312 -1.36779 -0.582003 1.0622 0.582034 0.948266 0.521438 -0.134478 0.365635 2.54203 0.51491 0.691138 -1.01986 1.07674 1.58379 0.10567 0.0379174 0.958616 0.856588 0.352868 1.62214 -1.33572 -0.089073 -0.211285 0.367381 1.05985 0.580359 -0.764999 -0.143852 0.804033 0.419203 1.64891 -0.296022 -0.984581 1.73512 -0.141303 0.108654 -0.529636 -0.955156 1.3788 1.26419 0.803864 -2.14693 1.93355 -0.17025 0.123763 -0.449075 -0.15168 0.750329 -1.38761 -0.0557852 0.917656 0.239993 -1.21015 -0.702834 0.645392 -1.33423 0.104252 1.46596 0.596858 -0.499982 -0.377501 -2.55064 -0.546035 0.0269679 1.34989 0.286636 0.230623 -0.407336 0.992686 -1.80475 0.243058 0.227042 -0.618939 -0.295545 1.36333 0.0320179 0.159245 -0.711806 -0.109499 -0.745208 -0.295422 -0.502606 0.0967202 -0.0557835 1.77733 -0.240594 0.43304 -1.90254 -0.808378 -0.828718 1.60347 -0.189331 0.450216 -1.92835 -0.0241261 0.484063 -0.269004 1.12525 -0.463507 0.153441 0.611623 -0.402913 -0.774711 0.313582 0.661537 -1.46063 0.319995 -1.14656 1.3002 -0.908227 -1.10118 -1.19902 0.552243 1.14258 0.378959 -0.439779 -0.874251 0.253 1.33019 2.59834 -0.955663 0.659494 -0.219563 -1.4351 0.513691 1.6586 -0.0199119 -0.159254 -0.496002 -0.230108 0.330365 1.56599 -0.97745 -0.552914 -1.02781 0.488957 0.165916 0.74985 0.0622365 -0.107364 0.395632 -0.274047 0.297864 -0.932727 0.638398 2.06726 -0.658875 -0.906751 -0.0137017 0.966232 -0.389224 -0.666646 0.510214 -0.0287188 1.94689 0.62204 -0.0302511 -0.520304 -0.825859 -0.539242 1.80467 -0.553155 0.602189 0.69077 -1.13338 -1.03312 -0.18644 -0.573761 0.695176 -0.0426655 -0.0800419 1.21574 -0.753177 0.22307 -0.916068 1.90081 -1.42011 -1.43513 0.160781 0.929017 -2.10597 -0.165954 -0.443173 1.0365 -0.801615 -2.42489 -1.91887 -1.08864 -0.918593 0.785381 -1.70951 1.17195 -0.517004 -1.66699 -1.18472 0.474057 -2.71118 -0.876144 -1.91027 0.157334 -0.933668 -0.540533 1.0935 -0.894021 0.649923 -0.217603 1.60961 -3.21048 2.06023 0.960283 1.89044 1.86839 -1.19559 -0.189291 0.781395 -0.422944 2.03528 0.978424 -0.461043 1.40335 -0.534119 -0.0665939 1.35961 1.59177 -0.268489 -0.5107 0.267303 -0.364621 1.11061 0.562125 0.248801 0.96526 -0.636147 0.258346 -0.760494 0.691681 0.474298 -0.0119028 -1.87534 0.769051 0.536696 -0.249446 2.37373 1.00809 -0.790304 -1.31625 -0.723922 0.211759 0.722916 -0.792924 -1.62665 0.469972 1.27006 1.11669 -2.4975 1.06709 1.23888 0.00805823 0.332688 0.145991 0.468172 0.378276 0.526939 0.798967 -0.190698 -0.267884 0.134624 -1.14745 -0.793793 1.32057 1.9822 -0.115277 0.423077 1.05642 0.799172 -0.961947 -0.606154 0.0452793 0.253588 0.321249 -0.419218 0.129284 0.353446 -0.888069 0.899224 0.206879 0.784099 0.876599 1.49075 -0.870518 -0.772623 0.37557 1.19466 -0.303925 -1.30518 -0.42877 0.560279 -1.84569 -0.657162 0.00782982 -0.128148 -1.2132 -0.811541 0.891977 -0.342659 -0.768494 -0.967809 -0.113843 1.22058 0.169608 1.12593 1.48001 -0.00747092 -0.230175 0.988999 0.442041 -0.020336 -1.09627 0.900607 -0.621479 0.0986427 -0.218062 1.51443 -0.435548 -1.07549 1.95993 -0.228882 -2.05846 -0.0853313 0.402969 -1.8357 0.645983 0.023378 0.354379 0.978915 -0.359554 1.18428 0.896539 1.21409 0.601439 -2.05325 -0.238462 -0.299456 2.45855 -0.47101 0.859491 1.32891 0.91665 0.0123969 -1.57208 0.255689 -0.478129 -1.84546 1.63518 -0.367928 0.606395 0.27427 -1.02814 -0.531647 -0.12837 -0.0663809 -0.36715 0.0201344 -0.41574 -0.944995 0.81615 0.0757467 -0.85116 0.445188 -0.642598 -0.461815 0.223175 1.56552 -1.84286 -0.225821 1.6748 -0.465584 -0.627803 0.108617 1.02436 1.41228 -0.18142 2.03725 0.085329 -0.067894 0.183655 0.688685 0.385642 -0.26455 -0.744102 0.0608556 -0.98381 0.836861 0.459901 -0.17634 0.0223409 -0.303723 0.896178 1.33345 0.692336 0.577841 0.696432 1.16763 -1.52122 -0.58239 0.297696 1.08739 0.922311 0.176172 -0.583866 -0.122549 1.51872 -0.28097 0.0258886 -0.73949 0.817273 2.20185 0.628493 -1.14461 0.801075 -0.747337 -0.643232 0.265912 0.587153 0.0935458 0.223828 -0.292199 -0.115967 1.39129 -0.419463 -0.371576 -0.927795 1.89063 -1.31446 0.928499 -1.05839 0.154599 -0.200014 -0.0727661 0.181637 0.786812 0.369345 -0.323201 0.246655 -1.24779 0.491547 0.651048 0.020365 0.961636 -0.140773 -0.113729 -0.0472902 -0.162514 0.374822 0.389027 0.479901 -1.34835 -0.697985 0.0130081 0.0265189 0.235958 0.100925 -0.845543 -1.64856 -0.307057 -0.910579 -0.556261 1.06367 -0.0100367 -0.257037 0.705778 -0.147543 -0.926803 -1.0289 0.254463 1.12242 0.0854121 0.19396 0.630249 -0.338807 -0.596543 0.972552 0.941669 0.822502 1.62744 2.18887 0.147155 -0.294182 0.533131 -0.442818 -1.53376 0.189307 0.0039526 0.687567 -0.0675688 -0.815486 -1.64026 -0.0971835 -0.213526 -2.03464 2.05654 0.19029 0.712895 1.87194 -0.981435 0.38675 -1.05223 0.750614 -0.293918 1.76625 0.366192 1.64143 0.720174 0.595068 1.30817 -1.1102 -0.0978609 -0.526665 0.746242 1.0528 0.257295 -0.636865 -1.54021 -0.53642 0.218217 -0.332923 2.06975 0.650149 -0.866083 -0.743162 0.57822 1.18698 0.65051 -2.1076 -0.783109 -0.224609 1.5332 1.37081 0.270737 0.374337 -0.0580538 0.0656597 1.28711 0.34042 -1.39024 0.174701 -0.38983 0.912788 -0.52258 -0.813957 0.961981 0.180445 -0.446317 0.842594 -1.58182 -1.18087 -1.50372 2.17547 -0.663191 0.0602017 1.07016 0.43001 -0.641311 0.388442 0.56563 -1.07293 -0.0167318 0.239724 1.98414 -1.57422 1.49291 -0.228728 -0.680669 -1.17716 -2.87058 0.360069 -2.25561 0.252877 1.2172 1.18688 0.160188 0.0300918 1.09835 1.26408 0.993387 0.989666 -1.04481 0.135487 -0.952117 -0.0413245 -0.37634 0.744155 0.525698 1.12133 0.58138 1.80108 1.65422 0.461612 -0.99229 0.775051 0.410409 0.333967 -0.676475 -0.356636 0.313632 1.24453 0.0897544 -0.21104 2.63712 -0.163556 0.490244 -1.34161 1.58257 -0.0754204 -0.708349 0.929584 1.17275 0.756468 -1.11491 -0.225722 -0.218861 1.10148 0.487565 -1.39003 -0.862851 0.0875287 0.220368 -0.602081 1.64181 0.0866673 0.208428 -0.627443 -0.101433 0.967264 -0.839272 0.941817 -0.802041 -0.0320184 1.18049 -1.6057 2.03556 -0.0130166 0.317697 1.15483 1.90354 1.0219 0.203987 -0.958041 0.009955 -1.19437 0.771717 -0.378785 0.0506696 -0.925672 -0.819684 0.205775 -0.451196 0.354141 1.43245 -1.16779 2.02521 -1.22786 -1.02713 1.08638 -0.477274 0.110391 -0.147885 0.14199 -0.16289 -0.087053 0.206437 -2.0053 -1.02935 1.3526 -0.155621 -0.209414 -0.406987 -0.47149 -0.833121 1.81458 -0.16027 -0.753015 0.780044 -1.28338 -0.849089 0.786961 0.973291 0.90931 -1.85836 1.04733 -1.43904 1.22772 1.58407 0.672086 -0.314766 0.99758 0.0366233 -0.242295 -0.56525 0.408324 -0.0462959 1.35841 0.158631 0.332505 1.4192 0.11455 -0.765913 1.38552 0.21144 -0.472283 -0.298702 -0.288629 0.39863 -0.259922 -0.201307 0.450412 0.529258 -0.155644 -0.549354 0.163797 0.672448 0.434942 -1.31454 0.746719 -0.681721 -0.966435 -0.891385 -0.104426 0.609816 1.07313 1.34539 0.732032 0.374414 -0.137325 -1.18102 -0.00624085 -0.100158 -0.146603 2.54961 0.695849 -1.31682 2.56502 0.394419 0.368828 0.137179 -0.831585 0.517243 -1.1979 -0.486686 0.0173225 -0.186803 0.56707 1.16588 0.0318723 -0.381952 0.643295 -1.36279 -0.0822946 0.575184 1.7142 -0.0573504 0.891632 1.34673 -1.70124 -0.703362 -0.512548 0.123973 0.81797 -1.68933 -1.27692 0.0467596 -1.42183 0.283546 -0.0744905 -0.56738 -0.159442 0.207281 -1.67748 -0.456363 -1.02309 -0.224627 1.27008 -0.427463 -0.262659 2.31804 -0.0184365 -1.37814 0.772527 -0.392442 -0.987548 -0.586064 -1.157 0.916847 0.575849 -0.94888 1.23907 -0.118641 -0.306062 1.60553 1.35654 -0.176885 -1.98583 0.16408 1.40713 0.66614 -2.35407 -0.17175 0.0662788 0.520925 0.0371813 -1.28941 -1.23517 -0.535214 -0.141655 0.335133 0.984241 0.655127 -0.479567 0.693198 -0.473243 -1.17149 -1.56768 0.96313 0.296318 0.868353 -0.497862 0.469089 0.520505 -1.74016 0.955875 0.333271 0.599545 1.6445 -0.063583 -2.17649 -0.558082 -0.284994 -0.868112 0.678244 -3.67792 0.623897 2.34621 0.428701 -0.480237 -1.62011 0.140558 -0.415777 0.904274 0.212998 -1.55908 -0.914788 2.29172 -0.99631 1.10093 -0.44833 0.36182 -0.577131 -1.87073 1.078 -0.214436 0.723526 -0.965575 0.840159 -1.24504 0.958597 0.936568 1.36742 0.715101 -0.914381 0.019171 -2.05157 -0.468508 1.1107 2.06306 1.70671 -1.18069 -0.894345 -0.152249 0.55177 -0.223492 -0.461358 1.01654 -0.811454 -0.62953 -1.6242 -1.32323 -0.93953 -0.337056 0.273901 -0.623829 0.962777 0.244581 0.252184 -0.0770416 -1.07683 0.0367061 -0.178844 0.460361 -0.422582 1.42792 1.85291 2.17682 -0.776171 -0.0436718 -0.714678 -0.203329 -0.787535 0.0641088 -0.270533 -1.41052 0.200806 -0.00528414 -0.0121847 -0.477513 -1.00574 0.512494 0.100607 0.316754 -0.218269 -0.966374 -1.01198 1.3227 1.46665 -0.325349 -0.736906 -0.244554 0.496225 1.47038 -0.418937 -1.10989 -1.25722 0.283698 -0.879091 -0.54653 -0.0892711 1.70504 -0.176819 0.0677963 -1.8501 1.02886 0.425237 0.26884 2.16063 0.165889 0.895845 0.30861 0.562836 -1.67787 1.92112 -2.18814 0.472296 -0.934857 -0.149493 -0.14938 0.87398 -1.78832 1.39958 0.331066 -1.15478 -0.079558 -0.799958 0.828834 0.244144 -0.576654 1.53159 0.698937 0.328931 1.21735 0.665031 -0.97858 -0.871586 -1.3834 0.828453 0.456389 2.42705 0.922294 2.06362 0.281827 0.410665 1.22765 1.17752 -1.24156 2.06386 -0.397526 0.302035 0.804177 1.14466 -0.00585145 -0.744395 -0.918872 0.383584 -0.456507 -0.339666 -0.433852 0.338946 -1.47033 0.735406 0.708544 1.39633 -0.571208 -1.00462 0.510882 1.20923 1.04294 -2.05296 0.133679 -1.4494 0.0237778 0.261136 -0.294353 0.27164 0.688511 -0.0221115 1.85431 -0.117015 1.83059 -1.52308 -0.190177 -0.315589 0.130643 1.27937 0.812604 1.50279 -0.866782 0.662688 0.440041 0.867302 -1.01622 -0.0425441 -0.559203 -0.0531441 -1.20145 0.345776 0.500466 1.30347 -0.294127 0.978472 -0.127281 0.498348 -0.0954093 -0.0140579 0.493565 -0.388873 -0.643291 0.435567 0.732301 -0.933065 0.559826 -0.626868 0.0415631 -1.48697 0.540575 1.24411 -1.25336 0.440975 0.784042 -0.0762243 1.92335 1.54772 1.14542 -2.31029 0.569833 -1.28559 0.500244 -0.363034 1.00691 1.19523 -0.256595 -0.482188 0.481665 0.986301 -0.422092 -0.1942 0.616151 0.473124 -0.804784 -1.70433 -0.296534 -1.10338 -1.56537 1.724 -0.461268 1.46794 0.76747 1.50503 0.181366 1.92014 -0.681542 -0.453697 -0.604021 0.769172 0.481269 -0.628472 -2.03531 -0.232861 0.575895 0.44349 2.14193 -1.20899 -0.703309 -0.471563 2.34863 0.0607271 0.270755 0.215593 -2.3839 -0.42379 0.635913 0.315724 -0.381905 0.230107 1.47777 1.75486 -0.850343 1.05069 0.780631 -1.6993 -0.596327 -0.251697 1.21474 0.723397 -0.987867 2.64661 -0.420289 -0.285025 1.69594 -0.39261 -0.906277 -0.895252 1.69574 -0.848011 -0.808415 0.242678 -0.332587 0.140381 0.491643 -0.386107 -0.363511 1.21846 0.252778 -0.731943 -0.976191 -0.735233 -0.240959 0.534256 -3.55992 0.588911 1.00972 -2.8745 0.271531 -0.525135 -0.554416 -0.489414 -0.440844 -1.15096 0.832213 1.57943 1.13964 -1.33458 0.713515 -0.317775 -0.81159 0.228285 1.8786 0.614311 -0.193058 0.152129 -0.833738 -2.0342 0.69935 1.64543 0.382583 0.0170201 2.22828 -1.47845 -1.05412 0.643858 0.172136 -0.714497 -0.636819 0.15373 -0.198429 1.48471 -0.934069 -0.843201 -0.322342 -0.684885 -0.944224 2.42883 -0.422203 -0.744362 0.688074 0.970023 2.48769 -1.12836 -0.790912 0.319479 0.707684 1.36764 0.101855 0.293915 0.860917 -0.431236 0.602418 0.354913 0.0890211 0.314505 0.272869 0.123366 2.02044 0.493995 1.3656 0.310895 -0.443321 -0.281556 1.00039 1.28654 -0.958368 -0.467072 -0.0399191 -0.24625 -0.427841 0.0941627 -1.00283 -1.02524 -1.65308 2.61339 0.778032 0.336931 -0.413173 -0.0998469 0.37797 -1.01532 -0.713654 -1.00032 -0.430586 0.00517228 1.32277 0.464286 1.2712 -0.0950516 -0.153968 -0.6757 1.69211 0.717093 -1.42207 0.49832 -0.215621 0.127868 0.22634 -1.11791 0.192289 -1.12439 -1.2492 -0.215875 2.02882 -1.2978 -1.41306 -2.15127 0.350712 -1.02671 0.511739 1.37472 -0.0769427 0.264689 -1.04551 0.518517 1.10798 0.832255 -1.14462 1.33986 0.0871571 0.681018 -1.10553 1.3301 -0.317637 -1.9491 -1.49046 0.555137 -0.0238335 -0.871042 -0.208217 -0.707651 -0.531398 0.323284 1.00446 -0.237484 -3.04278 0.169625 -0.526311 -1.66138 -0.686828 0.555285 0.000921082 -1.13568 0.415491 -1.01424 0.650176 -0.0612193 -0.413799 1.77531 0.478333 0.00691958 -0.0698214 -0.801989 1.08155 1.51052 -0.761023 1.47692 -0.104388 1.81053 3.38008 -1.91535 -0.342826 -0.312644 0.00918023 0.597269 -0.511902 -0.0658506 -0.522452 2.45423 -0.965665 -0.138133 -0.294311 0.24111 -1.38717 -0.245391 0.318019 -0.173057 0.192711 1.55943 0.210331 -1.16254 0.00965364 1.0077 0.464269 -1.76911 1.42306 0.692782 1.24287 0.311425 0.623702 0.201526 -1.1874 -1.56884 -0.981373 0.960222 -0.895988 -0.267953 -2.3342 -0.566649 -0.321862 0.298758 0.977165 -3.52604 0.035964 1.39936 -1.14101 0.18546 -1.47658 -0.137777 0.306714 1.24704 -1.61577 -0.270768 -0.425397 -0.0339899 -1.09569 0.320539 -0.25325 -0.111308 -0.129973 0.85353 0.511375 1.26517 -1.77081 2.16891 -0.122883 -1.39171 -1.03991 -0.888321 0.973774 1.60988 0.721451 -0.38188 -3.65189 0.742049 0.746843 -0.588288 0.201608 -0.360959 -0.377992 0.894426 -0.110332 0.622417 -0.086983 -1.10763 0.377395 1.37964 -1.00027 -0.205746 3.04329 0.851279 1.35619 -0.779091 -1.51323 -0.580463 0.326926 -1.24002 -2.12125 1.18887 -0.19041 0.304967 -0.950109 -0.0841279 1.07912 0.361763 -0.299663 -0.101245 0.0742677 -1.72162 0.251238 -0.640336 -0.406662 1.0433 -0.583702 -0.574807 -2.04808 1.20706 0.0722519 0.44354 -0.0605724 0.189797 -0.40892 0.072046 -0.949923 -0.806894 -0.56503 0.0938152 -1.18168 -0.710554 -0.289395 -1.86713 -1.51233 1.16695 0.746171 1.46879 -0.101174 0.848028 -1.22693 -1.3945 1.11326 0.928952 0.350496 -2.99027 1.50666 -0.391634 0.027641 -0.291937 -0.164084 -1.12151 0.432299 0.379127 0.428509 2.37649 -0.652693 -1.18899 -2.44439 -1.01718 0.0489607 -0.403161 -1.21568 0.89468 -1.17949 0.941094 1.0205 -0.30846 -0.0647722 -2.01352 0.40274 -0.328829 1.3059 1.01334 -0.0545049 0.527644 0.130233 -0.0821622 0.443588 0.31567 0.275002 1.17172 0.264192 0.513433 1.73814 0.0512276 0.311542 0.454236 1.78033 0.182916 -0.328025 0.87238 0.157773 0.73674 -1.51772 0.54497 0.492958 0.96061 -0.847133 -1.23751 -0.063291 -0.827516 -0.0963509 0.485528 -0.537742 -0.426822 -0.808094 1.03932 0.544723 2.50642 0.0200071 -1.34539 -0.32256 -1.11737 0.19548 1.29672 3.64612 -0.0456747 0.226724 0.229873 -0.76766 0.106273 0.553031 -0.0388694 1.02098 -0.497533 -0.532473 0.816029 0.0235087 -1.31815 -1.47278 -0.587708 0.871765 -1.87849 0.66541 0.236614 1.08483 1.40203 -0.76014 0.718143 1.4047 0.0147382 0.408228 0.297957 -1.66737 -1.80437 0.612774 -1.30608 0.264841 0.410587 0.658398 0.11822 -0.00256047 -0.68176 1.02529 -0.216353 1.73825 -0.0713661 -0.123489 0.895401 0.409357 1.65674 0.856806 -1.77464 0.160948 -0.767069 1.06695 1.10445 0 -0.741231 -0.474503 -0.676921 -0.144232 0.0849328 -0.0894084 0.488132 2.64682 0.0353006 0.62025 0.761625 0.52047 -0.484653 -1.08544 0.576199 -0.626679 -0.24334 1.4319 0.493123 -0.392997 1.1017 -0.0916907 -1.59932 -0.305712 -0.728318 -1.05767 -2.04632 -1.27472 -0.324342 -0.105324 -0.663701 0.951523 0.373512 0.152447 -0.698284 0.485122 -1.52665 -0.598788 -0.0549863 -0.296553 0.344287 0.277529 -0.394964 0.581943 -0.89031 1.24276 1.96787 1.28891 1.11993 2.17254 0.919486 -0.694025 0.215427 -1.08883 -0.223706 0.870832 -0.53921 1.9093 0.907264 -0.397167 0.638747 0.868979 -1.16819 -0.145245 -1.27212 0.660557 1.49012 1.88202 -1.8277 0.867441 0.804581 -0.389839 0.3555 2.82693 0.447883 -0.266754 -1.24365 -0.756255 -1.09162 0.814894 -0.513351 -0.162602 -1.07125 0.0220745 2.2184 -0.47822 -0.954095 -0.980879 -0.0820428 -0.0395108 0.996883 -0.395511 0.561751 1.13935 -0.0343788 -0.0313772 0.0333682 1.36987 -0.88221 2.1147 -0.173583 -0.406703 0.506299 0.663029 -0.0550874 1.31172 -1.19198 0.0325366 1.37859 0.345556 0.550739 0.528065 0.411002 -0.74234 -1.76423 1.28358 -0.934824 0.182364 0.321295 -1.24517 0.376042 -1.12222 -0.476351 0.892628 1.3692 -0.790204 0.160506 -2.49888 0.717515 -2.73767 0.833341 0.250073 0.82301 -0.751838 0.677606 0.805567 0.823978 0.935493 1.82731 -0.966642 0.386731 -0.579343 -1.57457 -1.7333 -1.75886 0.446103 0.0858419 0.262969 0.252169 0.700535 -2.55661 -1.75455 0.716732 -0.178875 1.62618 0.0120236 0.120465 -0.49979 0.661315 0.861465 2.10813 0.544327 0.532709 -0.0261742 0.120138 1.29239 -0.224189 0.636155 0.944195 -0.21914 0.686748 -1.05383 -0.33811 -0.379775 1.42063 1.12215 -0.549201 0.170167 -1.27662 0.646344 -0.93002 -0.435766 0.997973 1.25123 -0.0309741 2.00206 -0.35332 0.548576 0.844966 -1.25808 -0.486425 -0.281922 -0.257643 0.543679 0.518945 0.517127 -1.29807 0.0936682 -1.08068 -0.589569 -0.861615 0.0535798 0.229371 -0.906356 1.51209 -1.51911 -0.106608 -0.888494 0.262568 1.4926 -0.113541 0.426983 -0.375347 0.855777 0.516538 -0.351708 1.60972 -0.603786 -0.29378 1.72334 -1.58454 -0.496151 -1.23476 0.492351 0.42401 -0.176525 1.18173 -0.540743 -0.0025752 0.627064 1.73888 0.591337 1.4391 0.14816 1.48175 -0.0446917 -0.91104 -1.1802 1.82356 0.510462 0.0167564 -0.937567 -0.142037 -0.551019 1.06246 0.535688 -1.71401 0.019508 -2.87727 0.788187 0.00342016 -2.55603 0.754208 0.516832 -0.880885 0.0579388 0.0524297 1.15172 1.92482 0.219614 0.354703 -1.31758 1.53117 -0.00790036 0.00576427 0.116514 1.00382 1.21401 2.27005 -0.00477178 -0.125159 -0.879973 -1.38079 0.561411 0.756698 0.903753 0.836426 -0.156049 -1.90079 1.15559 0.598815 1.59805 0.00552386 -0.861573 1.33793 0.162336 -2.63095 1.54166 -0.919437 0.313612 0.699254 -1.43833 -0.979958 0.99271 -0.815563 0.903541 -0.848783 -0.0743088 1.34253 0.149496 -1.52074 -0.515204 -0.810833 -0.712941 1.17949 -0.912661 -0.624007 0.232753 1.19779 -0.0398206 1.81345 -0.164901 -1.5027 0.647444 -1.18072 0.517529 -0.497751 0.682263 0.527233 -1.04401 1.09815 -0.775236 0.360104 -0.38775 0.0347843 0.598166 -1.18535 -0.0184762 -0.142419 0.126542 0.336295 0.408327 -0.436168 -0.16318 0.920361 -2.24396 1.78164 0.629053 0.336462 0.802045 0.247416 1.68997 0.293905 -1.85607 -0.879103 -0.171458 1.52945 -0.202632 1.92586 1.2775 0.30183 0.641743 -1.44822 0.478033 -0.116253 0.581146 -0.805837 -2.91457 -0.549457 0.492278 0.648605 0.253846 0.415753 0.935761 -0.229481 0.169108 -0.801561 -0.650549 -0.158998 0.564988 0.769436 -0.593898 -1.23324 0.722709 0.475132 1.20648 0.0309315 -0.822646 -1.54298 0.051307 -0.0473152 0.671868 1.09534 -0.485511 -0.596725 0.576825 0.657031 0.351098 0.190442 0.902557 1.31626 0.243625 1.68803 -1.00615 -1.87635 0.366868 -1.13829 -1.20546 0.249123 -0.837686 1.59776 1.10235 1.58429 0.825412 0.866136 0.326401 0.00932532 0.208942 1.96815 0.721671 -0.234409 0.236899 0.985901 -0.724075 1.14494 -0.633087 -0.114296 0.305492 0.862195 -0.289984 0.125507 -0.74712 -0.167026 -1.26516 -0.0458655 0.776677 0.141462 1.73844 1.33719 0.292404 -1.71574 -0.426319 1.33034 -1.33617 0.968462 0.126041 1.04031 0.130395 1.12252 -0.0930571 -1.00519 0.664804 -0.116945 0.914578 -0.213492 -0.747017 -0.167632 -0.243836 -0.505296 1.31344 -0.486065 0.86512 -0.384939 -0.599247 -1.00476 -1.87754 -0.402966 -0.939948 -1.23772 1.0236 -0.355275 -0.612264 -0.120512 0.142111 1.02332 0.407496 -1.22647 -0.252414 0.281607 1.03711 -0.0527723 0.710505 1.38659 -0.814052 -1.92583 -0.486112 -1.3265 1.01246 -0.118639 1.44964 -0.910208 0.978327 0.246007 -0.285593 -0.620785 0.319255 1.60697 -1.26945 -0.870513 -0.283398 -0.139812 -1.14719 -0.848681 -0.14673 1.36957 0.469286 -0.23033 -0.538442 0.0458465 -0.589409 -0.909177 -1.00422 -0.72073 -0.855301 1.03137 -0.382653 1.87107 -0.731251 -0.377422 0.177809 0.725372 0.270641 0.043107 0.0558336 1.43866 -0.206808 -0.237889 0.120555 -1.08417 -0.247673 0.436085 0.327952 -0.276258 -0.26367 0.917574 -0.119789 -0.454626 -0.495732 -1.16093 -0.595412 -0.463076 0.782194 0.338994 -1.08344 -0.401809 1.38085 1.05266 -0.397718 -1.96403 0.702652 0.145417 -1.25397 -1.71632 0.132917 0.0718295 -0.632853 0.0932772 -1.06882 -0.110177 -0.739207 0.250702 -0.60451 -0.326044 0.750097 -1.65092 -1.00246 0.608546 -1.46382 -0.137161 1.29353 0.0726548 0.794348 -1.46029 -0.934985 -0.0160572 0.555802 -0.00712026 -1.44996 0.39233 0.0501814 -1.09607 1.34708 1.22416 -1.3412 0.390422 1.89308 -0.499265 -0.907219 -0.752428 0.16627 1.35645 -1.40057 1.38986 -1.73985 -0.240079 0.382279 -1.3155 0.877549 0.119615 -0.876562 -1.48359 -1.64247 0.976934 0.858464 -0.152218 0.72266 -0.375994 0.168899 0.167864 -0.902331 1.91692 -0.0128239 -0.624623 -0.161842 1.96236 -0.162333 -1.275 -0.631017 0.587569 0.722906 0.151278 0.192793 -0.348873 0.659653 -0.345417 -2.11858 -1.43555 -1.38284 0.877564 0.0198589 1.02 -0.00486296 -0.0907679 -0.751745 -2.39692 0.701059 -0.978226 1.06606 -0.185873 -0.162218 0.144379 0.478121 -0.444067 1.42729 0.504635 -1.92793 0.80129 -0.370883 0.895807 -1.00986 0.330218 0.742063 -0.688222 0.915335 -1.27389 1.87049 -1.13758 -0.528407 1.14335 1.75714 0.639758 -1.64314 -1.70097 -0.168662 2.44449 0.188633 0.588891 0.0965988 -1.83842 0.306793 -2.4538 -0.6858 -0.235032 0.644567 -1.28674 -0.281111 0.82188 -0.608494 -0.28221 -0.270036 -0.388361 -0.600209 -0.725346 0.707395 1.00801 0.755592 -0.763727 -0.225176 -0.992607 1.27748 0.806472 1.0145 2.38304 0.615198 0.619418 -0.0923108 -0.168066 0.925474 1.32052 -2.80069 0.0580753 -0.83512 0.815062 1.75723 -0.0414214 1.47442 -1.07107 -1.13343 1.06131 -0.708961 -1.24005 0.447378 2.09269 -0.601663 1.34292 -0.475699 0.333784 1.83357 -0.30845 1.80191 -0.334687 1.51305 0.360326 -0.524115 -0.467312 -0.516713 -0.235474 0.703993 0.00547965 0.749312 -0.849199 0.692575 -0.592355 -0.22361 0.0768841 1.32281 0.000420767 -0.565945 -0.598444 0.188465 1.28356 0.130426 -1.81501 0.289095 1.03887 -0.911541 -0.433675 0.423218 1.05009 -0.187561 0.716867 0.871037 0.402985 -0.261226 -1.35452 1.84225 0.712052 0.27 0.228385 -0.123804 0.036564 0.0703031 -0.403143 0.584444 0.581899 0.164201 1.12976 -1.05005 -1.05613 1.25329 0.11062 0.873776 -0.0419087 0.238635 0.942254 1.17332 0.281693 -0.518059 1.14976 0.257912 0.221238 -0.729149 0.392567 0.863512 -0.0494519 -0.322993 1.67838 -0.927805 2.34383 1.56146 -0.0806862 -0.291029 -1.00332 1.03814 1.08727 -2.03476 2.56479 -1.70583 -1.45297 -1.66341 0.364766 -0.244024 0.468822 -0.749185 -2.41534 0.242597 -0.834053 0.35259 0.0272807 -0.875459 0.0399151 -0.405836 -0.0359624 -0.15106 -1.06945 0.426627 1.69458 0.511728 0.944704 -3.35656 1.09505 -0.536994 -0.500803 -0.903261 -2.04482 -0.424621 0.238099 -1.54781 0.648109 1.57813 0.772153 0.399943 0.890636 -0.382456 -0.204125 -0.253682 1.05468 -1.05612 -0.151246 -2.44899 0.800163 -1.13136 0.613558 0.179285 -1.37815 -0.927215 -1.55229 -1.73756 -0.847334 -0.670704 0.653275 -0.262347 -0.390966 -2.40126 -0.144167 0.965082 1.88028 0.248276 -0.863525 -0.517438 -1.05507 0.31211 0.372649 1.94805 -0.927427 2.18262 -0.792939 -0.511201 -0.488294 0.94237 0.696882 0.493186 -1.20778 0.0547037 -2.03802 0.42308 0.0644497 -0.555104 -0.985462 -0.120813 0.381067 -0.680268 -0.261178 -0.384804 0.000227169 -0.722467 1.28016 -0.22437 -0.11766 0.942812 -1.34207 1.50851 0.28773 -0.278153 0.730587 -1.26211 -0.88047 -0.696133 -0.847204 -0.172064 -1.31161 0.00380117 0.571471 -0.774165 -0.528861 -2.36379 0.283926 0.0442971 -0.405802 1.8971 0.220224 1.75213 -1.89831 0.866604 0.00980646 -0.654418 0.456197 -0.0891856 0.803487 -0.524104 1.04997 -1.00735 0.204226 0.746312 0.0586092 -1.10854 0.417168 -2.40053 -0.106215 -0.68886 0.554035 -0.213199 -1.90857 -0.115255 0.690224 -0.991955 -0.873554 0.622057 0.605605 0.546871 0.762963 -0.621729 1.35778 -1.1419 -1.15196 0.875381 -0.738264 -0.261206 0.233043 -0.312796 1.61601 0.546125 0.598613 0.0667144 0.164121 0.44433 -0.597735 -1.80607 0.921448 0.716073 -1.31216 -0.0640161 1.23567 -0.808258 0.245912 1.22367 1.26234 1.46637 1.43625 0.941861 1.4742 0.744961 -0.0577698 -1.31878 -0.919193 -0.871901 -0.033853 1.96908 0.4198 0.123064 1.04692 -0.317324 2.18548 -0.328325 0.667066 1.16613 0.162163 1.22503 0.571753 0.244494 -0.903068 0.174592 -1.91592 -0.487579 -0.472453 1.14016 0.357158 -0.52523 0.137444 -1.41983 -0.674346 1.22964 -1.34337 -0.755055 0.941822 -0.566376 -1.12214 0.870725 0.236927 -0.186565 -0.206256 -0.00753734 0.270176 -0.456634 0.121639 0.158211 -0.858432 0.839069 -0.149607 -0.233347 -2.41788 -0.798653 -0.941178 0.881609 1.32039 -1.56106 -1.47222 1.02262 -1.90564 -0.0800864 -0.693499 0.809458 -0.312112 0.392642 1.58177 0.993104 -1.81815 0.17226 0.675081 -0.375865 -0.642309 1.60727 1.07894 -0.0316193 1.31575 0.834193 0.893669 0.545449 -0.229885 -1.45272 0.00559856 0.201692 -1.04285 0.0102094 1.42814 0.784784 -0.685607 0.759213 -0.629406 0.504361 -0.0281294 -0.492112 0.497828 -0.787775 0.723372 -0.884349 1.36356 0.463701 0.499659 -0.968217 -0.6175 -1.41003 0.17694 -1.2155 -0.16775 -0.988559 -0.157765 0.126122 0.209747 2.15098 0.315341 -1.04235 0.0697967 1.38378 0.807126 -0.244577 -0.364564 1.65115 1.04099 1.39147 -0.207588 0.135761 -0.692748 1.10104 0.156382 0.561005 0.056983 0.192464 -2.23284 1.8609 0.664333 2.35586 0.827843 1.40457 -1.32423 1.14683 0.277182 -1.25077 -0.995884 -1.94105 0.93914 0.32375 -1.96246 -0.444045 2.23359 -0.489451 -0.757543 1.06569 0.202974 -0.503777 0.712526 -1.32307 1.57678 -0.3814 0.561167 -0.372867 0.518831 0.532963 -0.598834 -1.4247 -2.00019 -2.08834 -0.468193 -1.05003 -0.472593 1.12817 -1.11446 -0.446675 -1.86012 -1.16655 -0.617757 -0.463086 1.38991 -0.795845 0.198604 0.872204 -0.300949 0.152784 -1.68915 -0.344615 1.96116 0.555907 -0.111839 -2.85354 0.431621 -0.13847 1.36819 0.130817 1.70243 -0.193477 0.273561 -0.396912 -0.678853 -0.462742 -0.100733 -0.268265 0.750831 -0.262712 -0.510571 2.01319 -1.37167 1.55948 0.749632 -0.734366 -0.227969 -0.435781 0.298056 -1.06841 1.03511 0.941068 0.493546 1.01102 0.0903046 0.67903 -1.18533 1.40659 -0.357366 1.28433 -1.17072 -0.861147 -1.04288 -0.265744 1.54507 0.50969 -0.150159 0.239204 0.94984 0.883757 0.493747 -0.171957 0.763949 -0.704337 0.248695 0.427762 1.81139 -0.935247 -1.18983 -1.01202 0.824217 -0.736837 -0.0583582 -0.0548997 -1.35934 -0.1186 -1.9772 1.26152 -0.334898 0.868712 -0.0816116 -0.175614 -0.613775 -1.79136 0.813052 -0.584131 0.593664 -0.716939 0.502053 0.94297 -0.453002 -1.46541 -2.14769 -0.090472 1.15665 -0.625744 -1.0389 0.116581 -1.10506 0.524256 -0.347898 0.168327 -0.334475 1.14545 0.60004 -0.635301 -0.563005 0.616398 -1.48048 -0.645291 1.56797 0.646946 -0.127921 0.00390383 -0.582798 0.228229 -1.39846 1.29328 -0.308212 -1.32573 -1.84976 -0.209459 -0.865099 1.42729 1.79295 -0.734142 -0.729249 -1.91633 0.135305 -1.6334 -0.141202 -1.67411 -0.670391 -0.416778 -0.274909 0.11666 -0.522984 1.42596 -0.950913 0.222356 0.142085 0.762026 -1.74598 1.80949 -0.560893 0.0161564 -0.535245 0.366628 -0.503552 -1.751 -0.785949 -0.286561 0.315575 0.398481 0.432455 0.0305176 1.11542 -0.043047 -0.154295 0.812124 -0.344235 -0.361437 -0.172966 0.348508 -0.784048 -1.11876 -0.539199 -1.43105 -0.308922 -0.482273 0.902283 -0.158528 -0.38082 0.260386 -0.452226 0.612137 -1.62119 -1.18989 -0.629549 0.778481 0.0450189 0.619683 1.65694 0.156657 0.259697 -0.514029 0.614917 0.624295 1.34429 -0.0143533 -0.743445 -1.46213 -1.05569 0.0580186 -0.315159 0.53216 -1.03095 -1.41056 -0.910048 -0.176539 0.213782 -0.362408 -0.920907 0.23818 1.28608 0.121717 0.0515882 -1.66241 0.918688 1.89223 -2.22575 0.378427 0.590099 -1.12813 0.0550216 0.175846 3.24536 -0.702118 1.40863 0.680256 -0.408306 0.511578 -0.80038 0.630993 1.24179 -0.716494 2.25223 0.47977 1.90509 -0.178697 1.23949 1.46979 1.00373 -1.35062 1.71535 0.651622 -0.766522 -0.912036 -0.583209 0.611606 -0.407371 2.0378 -0.616858 1.72107 0.239448 -1.18736 1.96936 -2.18012 0.894967 -0.0529443 -0.493098 -1.50066 -0.828366 -0.282438 -0.478757 -1.76853 0.550953 0.0977843 -0.459992 0.32562 0.220538 0.139009 -1.07558 0.927619 -0.707492 0.280122 -1.61148 0.0820212 -0.132104 1.34303 0.0878447 1.02048 -0.99986 0.590146 -0.366545 -0.824519 0.371589 0.00359307 -0.545687 0.804671 1.1414 -0.833974 1.04007 -1.58598 -1.37478 1.34655 0.341193 -0.120466 1.5401 -0.893407 0.606076 -0.738912 -0.562563 -0.2483 -0.237573 0.320299 -0.0245108 0.283394 -1.92372 -1.25164 -0.13102 -0.73333 -0.382775 0.475207 -1.47926 -1.37335 -0.817256 1.11151 -1.04341 -1.1141 0.503606 -0.169656 -0.918346 0.101952 0.774713 -2.4463 0.330108 -0.282778 -0.322982 -0.959123 -0.72333 0.307882 0.534064 1.2548 -0.818486 0.672427 -0.684972 -0.59031 -0.0759239 1.17803 -0.475947 0.418678 0.162973 -1.77901 0.565728 -0.0867356 0.297425 -0.401082 -0.213601 -0.48587 1.70799 1.69866 -0.389549 -0.433758 1.64011 0.979203 0.204357 -0.270881 0.587024 0.671827 -0.0592622 0.413044 -0.265091 2.00261 -0.444057 -1.28573 1.65703 -0.268059 1.24005 0.765581 0.317101 1.03171 0.0438302 0.57696 -1.52115 1.26711 1.41774 -1.46829 -0.950728 -2.17906 -2.41141 1.20454 1.84147 0.903742 -1.13451 -0.694075 0.410389 0.772691 -0.194185 -0.323367 0.790744 0.477166 0.0388214 1.43633 0.115339 -0.0950255 -1.38075 -0.210105 -0.245553 -1.93425 1.1109 0.246901 0.124653 0.637896 -0.966218 0.46972 -1.51627 -0.870345 0.069483 -0.203262 -0.118289 1.60629 -1.56481 0.28931 -1.47721 -0.171116 0.838621 0.203829 0.0388171 -0.37117 0.374535 0.555688 1.65213 -0.189416 -0.736273 0.612901 -1.4003 -0.650966 2.18822 -1.51497 -0.774267 0.512887 -0.864469 -0.786799 0.527185 -1.24918 -0.463055 -1.28142 -0.508632 -0.184258 0.466407 0.0334497 -1.64156 -0.304266 -0.777961 -0.171417 -0.0724206 -0.160862 0.442502 0.313765 0.078908 2.38764 -1.34459 -0.263261 0.602108 0.551732 1.55486 1.51389 0.470535 -0.0486141 1.33777 -0.279907 0.382617 0.344908 -0.737669 -0.115308 -0.510653 0.159992 1.91255 0.612708 0.99102 0.540997 0.328614 -0.755432 0.145229 1.54158 -0.123998 1.09016 0.600466 -1.8944 1.5856 1.04647 -1.17288 -0.0188427 -1.90184 -0.353505 0.508318 -0.534027 0.839011 -1.06735 -0.456481 0.312897 0.341646 1.16551 -1.25714 0.573837 0.00301205 0.399666 1.56214 0.955806 -0.179751 0.999922 -0.0814295 0.394862 1.0005 -0.711514 -0.580469 -0.143478 0.946599 0.632776 0.414927 0.600795 -0.787604 0.707149 0.6554 1.0623 0.850154 0.359455 -0.101714 -0.717542 1.47106 0.043939 -0.663836 -0.369294 0.662375 1.1156 0.132369 0.719391 -1.07402 1.31513 0.0974737 -0.765752 0.161901 0.359479 -1.34316 2.05241 -2.44324 1.16682 0.633476 0.19938 0.0794416 1.04817 0.534085 -0.437513 0.971644 -0.241781 -1.11924 -0.095176 0.477637 -0.42696 0.708503 -0.390236 1.46809 1.75228 -0.949676 0.369238 0.3423 0.13388 0.382593 -0.857277 0.115127 -0.219443 0.824243 -0.753339 1.26169 -2.5491 -1.19711 -1.79394 2.58135 -0.719228 0.0604478 0.814179 -0.358435 1.39067 2.02419 0.76847 -1.10783 0.124755 -1.09494 -0.48376 0.550074 2.76896 -0.813145 0.657992 1.38153 -1.13745 -0.221146 0.0147318 0.156177 -0.39133 0.377677 -0.0671584 0.0820156 -0.989882 -0.666408 